tree
version=v4
num_class=3
num_tree_per_iteration=3
label_index=0
max_feature_idx=3
objective=multiclass num_class:3
feature_names=Column_0 Column_1 Column_2 Column_3
feature_infos=[4.3000001907348633:7.9000000953674316] [2:4.4000000953674316] [1.1000000238418579:6.9000000953674316] [0.10000000149011612:2.5]
tree_sizes=443 439 439 567 457 566 570 458 562 463 456 565 465 458 566 465 457 565 462 460 567 465 459 564 462 456 564 463 558 564 568 456 565 570 560 564 570 560 566 568 558 459 569 559 561 568 559 563 568 560 566 571 458 563 570 559 565 571 556 463 569 459 565 567 460 565 571 565 674 572 562 564 573 669 568 570 562 561 570 560 466 569 560 565 571 562 770 572 562 770 573 563 674 573 664 767 575 565 882 573 566 674 577 669 882 576 666 881 576 670 782 575 669 567 576 668 665 577 667 887 577 666 786 576 669 888 577 668 670 580 665 668 580 776 994 577 778 787 577 776 999 581 774 783 580 666 663 581 776 1000

Tree=0
num_leaves=3
num_cat=0
split_feature=2 2
split_gain=70 3.55271e-15
threshold=2.4499999880790715 4.9500000476837167
decision_type=2 2
left_child=-1 -2
right_child=1 -3
leaf_value=-0.89861228866810983 -1.1986122886681096 -1.1986122886681099
leaf_weight=11.666667014360426 12.333333700895311 11.000000327825544
leaf_count=35 37 33
internal_value=-1.09861 -1.19861
internal_weight=35 23.3333
internal_count=105 70
is_linear=0
shrinkage=1


Tree=1
num_leaves=3
num_cat=0
split_feature=2 3
split_gain=17.5 43.9216
threshold=2.4499999880790715 1.5500000119209292
decision_type=2 2
left_child=-1 -2
right_child=1 -3
leaf_value=-1.1986122886681099 -0.9074358180798745 -1.181945622001443
leaf_weight=11.666667014360426 11.333333671092989 12.000000357627867
leaf_count=35 34 36
internal_value=-1.09861 -1.04861
internal_weight=35 23.3333
internal_count=105 70
is_linear=0
shrinkage=1


Tree=2
num_leaves=3
num_cat=0
split_feature=3 0
split_gain=61.3768 0.106522
threshold=1.5500000119209292 5.7500000000000009
decision_type=2 2
left_child=1 -1
right_child=-2 -3
leaf_value=-1.1986122886681096 -0.91527895533477643 -1.1836122886681097
leaf_weight=16.333333820104603 12.000000357627867 6.666666865348815
leaf_count=49 36 20
internal_value=-1.09861 -1.19426
internal_weight=35 23
internal_count=105 69
is_linear=0
shrinkage=1


Tree=3
num_leaves=4
num_cat=0
split_feature=2 0 2
split_gain=54.4671 2.47649e-06 2.7241e-06
threshold=2.4499999880790715 5.8500001430511483 5.0499999523162851
decision_type=2 2 2
left_child=-1 -2 -3
right_child=1 2 -4
leaf_value=0.16544243720553808 -0.095138578560178239 -0.095018109168436532 -0.09510378215709385
leaf_weight=12.630619108676909 6.9202999770641354 6.5944903790950766 8.4889453053474409
leaf_count=35 22 21 27
internal_value=-7.72039e-05 -0.095089 -0.0950663
internal_weight=34.6344 22.0037 15.0834
internal_count=105 70 48
is_linear=0
shrinkage=0.1


Tree=4
num_leaves=3
num_cat=0
split_feature=2 3
split_gain=14.5552 33.1558
threshold=2.4499999880790715 1.5500000119209292
decision_type=2 2
left_child=-1 -2
right_child=1 -3
leaf_value=-0.095037173592517468 0.15858902631166033 -0.078287037189183131
leaf_weight=10.993805527687071 12.237674295902254 11.426312327384947
leaf_count=35 34 36
internal_value=4.06405e-05 0.0442119
internal_weight=34.6578 23.664
internal_count=105 70
is_linear=0
shrinkage=0.1


Tree=5
num_leaves=4
num_cat=0
split_feature=3 0 1
split_gain=47.9043 0.104464 3.47548e-06
threshold=1.5500000119209292 5.7500000000000009 3.0499999523162846
decision_type=2 2 2
left_child=1 2 -1
right_child=-2 -3 -4
leaf_value=-0.095133159733693129 0.15247445578615704 -0.079820757086930538 -0.095037173592517468
leaf_weight=6.6052337884902981 12.926579117774962 6.3326245546340934 8.7950444221496564
leaf_count=21 36 20 28
internal_value=3.65068e-05 -0.0906325 -0.0950783
internal_weight=34.6595 21.7329 15.4003
internal_count=105 69 49
is_linear=0
shrinkage=0.1


Tree=6
num_leaves=4
num_cat=0
split_feature=2 0 2
split_gain=43.6855 4.08288e-06 7.32933e-06
threshold=2.4499999880790715 5.8500001430511483 5.0499999523162851
decision_type=2 2 2
left_child=-1 -2 -3
right_child=1 2 -4
leaf_value=0.14279062063592604 -0.091078642232154186 -0.090900848974153334 -0.091046211106736927
leaf_weight=13.067425042390822 6.4742449522018459 6.1589936316013318 7.9408259689807892
leaf_count=35 22 21 27
internal_value=-0.000196174 -0.0910129 -0.0909827
internal_weight=33.6415 20.5741 14.0998
internal_count=105 70 48
is_linear=0
shrinkage=0.1


Tree=7
num_leaves=3
num_cat=0
split_feature=2 2
split_gain=12.2157 26.3665
threshold=2.4499999880790715 4.9500000476837167
decision_type=2 2
left_child=-1 -2
right_child=1 -3
leaf_value=-0.090895930342454481 0.13100306157985922 -0.083337001231828786
leaf_weight=10.264065861701964 13.500133961439134 9.9831334352493268
leaf_count=35 37 33
internal_value=0.000107643 0.0398835
internal_weight=33.7473 23.4833
internal_count=105 70
is_linear=0
shrinkage=0.1


Tree=8
num_leaves=4
num_cat=0
split_feature=2 1 0
split_gain=38.558 0.0853216 0.00170062
threshold=4.8500001430511483 2.8500000238418584 5.1499998569488534
decision_type=2 2 2
left_child=1 -1 -3
right_child=-2 2 -4
leaf_value=-0.078073899880065897 0.13064411165750231 -0.090895204031134089 -0.09313736810776431
leaf_weight=6.5985070168972042 13.544421315193174 7.331372916698454 6.2807657420635223
leaf_count=22 37 25 21
internal_value=8.79005e-05 -0.087406 -0.0919298
internal_weight=33.7551 20.2106 13.6121
internal_count=105 68 46
is_linear=0
shrinkage=0.1


Tree=9
num_leaves=3
num_cat=0
split_feature=2 2
split_gain=35.7767 2.00331e-05
threshold=2.4499999880790715 4.9500000476837167
decision_type=2 2
left_child=-1 -2
right_child=1 -3
leaf_value=0.12692092485827994 -0.087558637796813152 -0.087763679175558801
leaf_weight=13.09149247407913 10.078305363655092 9.0383598506450635
leaf_count=35 37 33
internal_value=-0.000437717 -0.0876556
internal_weight=32.2082 19.1167
internal_count=105 70
is_linear=0
shrinkage=0.1


Tree=10
num_leaves=3
num_cat=0
split_feature=2 3
split_gain=10.318 21.2084
threshold=2.4499999880790715 1.5500000119209292
decision_type=2 2
left_child=-1 -2
right_child=1 -3
leaf_value=-0.087419798316223776 0.12270425847124547 -0.070390862362554235
leaf_weight=9.5045581459999067 12.731158703565599 10.28180083632469
leaf_count=35 34 36
internal_value=0.000231752 0.0364326
internal_weight=32.5175 23.013
internal_count=105 70
is_linear=0
shrinkage=0.1


Tree=11
num_leaves=4
num_cat=0
split_feature=3 0 1
split_gain=31.8128 0.0950211 5.5852e-05
threshold=1.5500000119209292 5.7500000000000009 3.0499999523162846
decision_type=2 2 2
left_child=1 2 -1
right_child=-2 -3 -4
leaf_value=-0.087816292938941387 0.11777550987765258 -0.072154164846217644 -0.087403411004587039
leaf_weight=5.7587206959724444 13.47856682538986 5.6942637860774985 7.6004889011383057
leaf_count=21 36 20 28
internal_value=0.000201711 -0.0829709 -0.0875814
internal_weight=32.532 19.0535 13.3592
internal_count=105 69 49
is_linear=0
shrinkage=0.1


Tree=12
num_leaves=3
num_cat=0
split_feature=2 2
split_gain=29.6971 1.49048e-05
threshold=2.4499999880790715 4.9500000476837167
decision_type=2 2
left_child=-1 -2
right_child=1 -3
leaf_value=0.11529467099908469 -0.084697591026717145 -0.084881714825919344
leaf_weight=12.803709685802461 9.2951035201549548 8.3423023819923383
leaf_count=35 37 33
internal_value=-0.000630145 -0.0847847
internal_weight=30.4411 17.6374
internal_count=105 70
is_linear=0
shrinkage=0.1


Tree=13
num_leaves=3
num_cat=0
split_feature=2 2
split_gain=8.76393 17.8057
threshold=2.4499999880790715 4.9500000476837167
decision_type=2 2
left_child=-1 -2
right_child=1 -3
leaf_value=-0.084486210916647153 0.10642517398128071 -0.076706968404508094
leaf_weight=8.7376146316528338 13.379586309194567 8.801989018917082
leaf_count=35 37 33
internal_value=0.000340984 0.0337555
internal_weight=30.9192 22.1816
internal_count=105 70
is_linear=0
shrinkage=0.1


Tree=14
num_leaves=4
num_cat=0
split_feature=2 1 2
split_gain=26.5398 0.0879899 0.00333704
threshold=4.8500001430511483 2.8500000238418584 1.5500000119209292
decision_type=2 2 2
left_child=1 -1 -3
right_child=-2 2 -4
leaf_value=-0.070971191849949253 0.10572323141094947 -0.084470542792805553 -0.087858462183470945
leaf_weight=5.7871581614017549 13.475654423236845 6.2379764169454557 5.4451620131731033
leaf_count=22 37 25 21
internal_value=0.000279177 -0.0810547 -0.0860496
internal_weight=30.946 17.4703 11.6831
internal_count=105 68 46
is_linear=0
shrinkage=0.1


Tree=15
num_leaves=3
num_cat=0
split_feature=2 2
split_gain=24.9345 2.00659e-05
threshold=2.4499999880790715 4.9500000476837167
decision_type=2 2
left_child=-1 -2
right_child=1 -3
leaf_value=0.10647950829273299 -0.082295269756991835 -0.082518131747977008
leaf_weight=12.290177315473558 8.5243475139141101 7.6798793971538535
leaf_count=35 37 33
internal_value=-0.000933192 -0.0824009
internal_weight=28.4944 16.2042
internal_count=105 70
is_linear=0
shrinkage=0.1


Tree=16
num_leaves=3
num_cat=0
split_feature=2 2
split_gain=7.47435 14.6429
threshold=2.4499999880790715 4.9500000476837167
decision_type=2 2
left_child=-1 -2
right_child=1 -3
leaf_value=-0.082002961758959325 0.097234088058154131 -0.07336391122068818
leaf_weight=7.9823192358016994 13.056968271732332 8.1853864341974241
leaf_count=35 37 33
internal_value=0.00049604 0.031497
internal_weight=29.2247 21.2424
internal_count=105 70
is_linear=0
shrinkage=0.1


Tree=17
num_leaves=4
num_cat=0
split_feature=2 1 0
split_gain=22.0845 0.0934882 0.00338481
threshold=4.8500001430511483 2.8500000238418584 5.2500000000000009
decision_type=2 2 2
left_child=1 -1 -3
right_child=-2 2 -4
leaf_value=-0.06736792939324944 0.096549091310938903 -0.081981161523447879 -0.085576647616550872
leaf_weight=5.393880218267447 13.15304124355316 6.1523011028766614 4.5581684112548828
leaf_count=22 37 27 19
internal_value=0.000413368 -0.0781044 -0.0835113
internal_weight=29.2574 16.1043 10.7105
internal_count=105 68 46
is_linear=0
shrinkage=0.1


Tree=18
num_leaves=3
num_cat=0
split_feature=2 2
split_gain=21.1122 1.91387e-05
threshold=2.4499999880790715 4.9500000476837167
decision_type=2 2
left_child=-1 -2
right_child=1 -3
leaf_value=0.099636045253379518 -0.080268848395193049 -0.08049638509084138
leaf_weight=11.62366306781769 7.7859162241220456 7.0384404808282852
leaf_count=35 37 33
internal_value=-0.00126284 -0.0803769
internal_weight=26.448 14.8244
internal_count=105 70
is_linear=0
shrinkage=0.1


Tree=19
num_leaves=3
num_cat=0
split_feature=2 3
split_gain=6.39611 12.2068
threshold=2.4499999880790715 1.5500000119209292
decision_type=2 2
left_child=-1 -2
right_child=1 -3
leaf_value=-0.079891320264637702 0.096183356439760337 -0.061242433176266535
leaf_weight=7.2519115358591106 11.646199405193331 8.5352809876203519
leaf_count=35 34 36
internal_value=0.000659211 0.0296038
internal_weight=27.4334 20.1815
internal_count=105 70
is_linear=0
shrinkage=0.1


Tree=20
num_leaves=4
num_cat=0
split_feature=3 2 1
split_gain=18.8343 0.101857 0.000220489
threshold=1.5500000119209292 4.1499998569488534 3.0499999523162846
decision_type=2 2 2
left_child=1 2 -1
right_child=-2 -3 -4
leaf_value=-0.080774485348615477 0.091414549197037065 -0.06224855611527616 -0.079855266510970219
leaf_weight=4.7497204095125216 12.463555723428724 4.4650575369596472 5.7909192740917206
leaf_count=22 36 19 28
internal_value=0.000557544 -0.0749072 -0.0802695
internal_weight=27.4693 15.0057 10.5406
internal_count=105 69 50
is_linear=0
shrinkage=0.1


Tree=21
num_leaves=3
num_cat=0
split_feature=2 3
split_gain=17.9744 2.08152e-05
threshold=2.4499999880790715 1.5500000119209292
decision_type=2 2
left_child=-1 -2
right_child=1 -3
leaf_value=0.094215999722960603 -0.078480216593254548 -0.078728778916708514
leaf_weight=10.862424552440645 6.5082648843526822 6.9848480075597763
leaf_count=35 34 36
internal_value=-0.00153002 -0.0786089
internal_weight=24.3555 13.4931
internal_count=105 70
is_linear=0
shrinkage=0.1


Tree=22
num_leaves=3
num_cat=0
split_feature=2 2
split_gain=5.49134 10.4316
threshold=2.4499999880790715 4.9500000476837167
decision_type=2 2
left_child=-1 -2
right_child=1 -3
leaf_value=-0.078090339932549435 0.085111129610297237 -0.068305737930483848
leaf_weight=6.5566002726554897 11.919663399457933 7.0555045753717414
leaf_count=35 37 33
internal_value=0.00080517 0.0280664
internal_weight=25.5318 18.9752
internal_count=105 70
is_linear=0
shrinkage=0.1


Tree=23
num_leaves=4
num_cat=0
split_feature=2 1 3
split_gain=15.892 0.105986 0.00505619
threshold=4.8500001430511483 2.8500000238418584 0.35000000894069677
decision_type=2 2 2
left_child=1 -1 -3
right_child=-2 2 -4
leaf_value=-0.061480630311232035 0.084118161174381922 -0.078067609367121607 -0.082876800908758319
leaf_weight=4.6181183010339764 12.05904385447502 5.0508162528276426 3.8544879704713821
leaf_count=22 37 27 19
internal_value=0.000653064 -0.073774 -0.0801492
internal_weight=25.5825 13.5234 8.9053
internal_count=105 68 46
is_linear=0
shrinkage=0.1


Tree=24
num_leaves=3
num_cat=0
split_feature=2 2
split_gain=15.4004 2.60269e-05
threshold=2.4499999880790715 4.7500000000000009
decision_type=2 2
left_child=-1 -2
right_child=1 -3
leaf_value=0.089850668962939695 -0.076961916539202424 -0.0772566196122252
leaf_weight=10.050944536924364 5.2142774760723096 7.046625480055809
leaf_count=35 30 40
internal_value=-0.00190998 -0.0771313
internal_weight=22.3118 12.2609
internal_count=105 70
is_linear=0
shrinkage=0.1


Tree=25
num_leaves=3
num_cat=0
split_feature=2 2
split_gain=4.72476 8.70718
threshold=2.4499999880790715 4.9500000476837167
decision_type=2 2
left_child=-1 -2
right_child=1 -3
leaf_value=-0.076550611825082868 0.07967753895407198 -0.065496322331670395
leaf_weight=5.9033724963665035 11.31492340564728 6.5075386315584174
leaf_count=35 37 33
internal_value=0.000987052 0.02667
internal_weight=23.7258 17.8225
internal_count=105 70
is_linear=0
shrinkage=0.1


Tree=26
num_leaves=4
num_cat=0
split_feature=3 0 2
split_gain=13.5311 0.124545 0.000196022
threshold=1.5500000119209292 5.8500001430511483 1.6500000357627871
decision_type=2 2 2
left_child=1 2 -1
right_child=-2 -3 -4
leaf_value=-0.07653959368752046 0.080429131409011867 -0.054774601236283915 -0.077492622197698244
leaf_weight=5.3924197405576724 11.247363567352293 3.5388181060552588 3.5983845144510269
leaf_count=32 36 17 20
internal_value=0.000807355 -0.0706661 -0.076921
internal_weight=23.777 12.5296 8.9908
internal_count=105 69 52
is_linear=0
shrinkage=0.1


Tree=27
num_leaves=3
num_cat=0
split_feature=2 2
split_gain=13.2482 2.34277e-05
threshold=2.4499999880790715 4.7500000000000009
decision_type=2 2
left_child=-1 -2
right_child=1 -3
leaf_value=0.086296061823329273 -0.07567247500877354 -0.075966288275168936
leaf_weight=9.2254035770893115 4.717971593141554 6.3888339549303055
leaf_count=35 30 40
internal_value=-0.00227425 -0.0758415
internal_weight=20.3322 11.1068
internal_count=105 70
is_linear=0
shrinkage=0.1


Tree=28
num_leaves=4
num_cat=0
split_feature=2 3 2
split_gain=4.07032 7.3537 0.580997
threshold=2.4499999880790715 1.8499999642372134 4.4500000476837167
decision_type=2 2 2
left_child=-1 2 -2
right_child=1 -3 -4
leaf_value=-0.075229837499967284 0.088479319071557788 -0.077995927783307717 0.043891368230331823
leaf_weight=5.2956799715757397 6.4068088829517382 4.8656215816736212 5.3734223544597626
leaf_count=35 23 27 20
internal_value=0.00113142 0.0254248 0.068141
internal_weight=21.9415 16.6459 11.7802
internal_count=105 70 43
is_linear=0
shrinkage=0.1


Tree=29
num_leaves=4
num_cat=0
split_feature=2 1 0
split_gain=11.5527 0.124589 0.00547065
threshold=4.8500001430511483 2.8500000238418584 5.2500000000000009
decision_type=2 2 2
left_child=1 -1 -3
right_child=-2 2 -4
leaf_value=-0.055571689852101994 0.075095526966198381 -0.075211209365912635 -0.08072279435454012
leaf_weight=3.9347645938396472 10.748160660266874 4.0783576220273972 3.2249081879854202
leaf_count=22 37 27 19
internal_value=0.000974041 -0.0699165 -0.077645
internal_weight=21.9862 11.238 7.30327
internal_count=105 68 46
is_linear=0
shrinkage=0.1


Tree=30
num_leaves=4
num_cat=0
split_feature=2 2 0
split_gain=11.4419 3.22762e-05 4.03653e-05
threshold=2.4499999880790715 4.4500000476837167 6.3500001430511483
decision_type=2 2 2
left_child=-1 -2 -3
right_child=1 2 -4
leaf_value=0.08336457796236113 -0.074477189566746774 -0.075139739009304984 -0.074648196238741679
leaf_weight=8.4091413766145724 3.2385337352752668 2.9428935647010803 3.864472970366478
leaf_count=35 23 20 27
internal_value=-0.00269718 -0.0747371 -0.0748607
internal_weight=18.455 10.0459 6.80737
internal_count=105 70 47
is_linear=0
shrinkage=0.1


Tree=31
num_leaves=3
num_cat=0
split_feature=2 3
split_gain=3.51393 6.33439
threshold=2.4499999880790715 1.5500000119209292
decision_type=2 2
left_child=-1 -2
right_child=1 -3
leaf_value=-0.07409506812963304 0.078334623249634125 -0.051098593155786881
leaf_weight=4.7356956750154522 9.055911570787428 6.4913489520549765
leaf_count=35 34 36
internal_value=0.00132135 0.0242932
internal_weight=20.283 15.5473
internal_count=105 70
is_linear=0
shrinkage=0.1


Tree=32
num_leaves=4
num_cat=0
split_feature=3 1 2
split_gain=9.93255 0.152532 0.000957055
threshold=1.5500000119209292 2.7500000000000004 1.6500000357627871
decision_type=2 2 2
left_child=1 -1 -3
right_child=-2 2 -4
leaf_value=-0.048577249863335926 0.072695517962365397 -0.074064567693229597 -0.076379288608905166
leaf_weight=3.1000555008649844 9.9237848222255689 4.1806102395057678 3.118800550699234
leaf_count=18 36 31 20
internal_value=0.00113051 -0.067161 -0.0750536
internal_weight=20.3233 10.3995 7.29941
internal_count=105 69 51
is_linear=0
shrinkage=0.1


Tree=33
num_leaves=4
num_cat=0
split_feature=2 2 0
split_gain=9.90616 3.44938e-05 4.31412e-05
threshold=2.4499999880790715 4.4500000476837167 6.3500001430511483
decision_type=2 2 2
left_child=-1 -2 -3
right_child=1 2 -4
leaf_value=0.080936765147217149 -0.073481332862663687 -0.074201766581768816 -0.07366754551350832
leaf_weight=7.6238764524459866 2.9027107954025251 2.6719746440649033 3.4809798300266266
leaf_count=35 23 20 27
internal_value=-0.00305426 -0.0737655 -0.0738995
internal_weight=16.6795 9.05567 6.15295
internal_count=105 70 47
is_linear=0
shrinkage=0.1


Tree=34
num_leaves=4
num_cat=0
split_feature=3 2 2
split_gain=3.09981 5.50173 0.474357
threshold=1.8499999642372134 2.4499999880790715 4.4500000476837167
decision_type=2 2 2
left_child=1 -1 -3
right_child=-2 2 -4
leaf_value=-0.073116939928943372 -0.075617021960732181 0.082794663086689438 0.039915213117540302
leaf_weight=4.2228820621967342 4.0735064446926108 5.4081846773624402 4.9333128184080124
leaf_count=35 27 23 20
internal_value=0.00149654 0.0230644 0.0623394
internal_weight=18.6379 14.5644 10.3415
internal_count=105 78 43
is_linear=0
shrinkage=0.1


Tree=35
num_leaves=4
num_cat=0
split_feature=2 1 3
split_gain=8.55866 0.141994 0.00727401
threshold=4.8500001430511483 2.8500000238418584 0.35000000894069677
decision_type=2 2 2
left_child=1 -1 -3
right_child=-2 2 -4
leaf_value=-0.050528178361062749 0.068373396625098282 -0.073100315089446033 -0.080146670980548049
leaf_weight=3.356848359107973 9.4195000529289228 3.2507089972496033 2.6669689789414406
leaf_count=22 37 27 19
internal_value=0.00123308 -0.0669567 -0.076276
internal_weight=18.694 9.27453 5.91768
internal_count=105 68 46
is_linear=0
shrinkage=0.1


Tree=36
num_leaves=4
num_cat=0
split_feature=2 2 3
split_gain=8.60528 4.86512e-05 4.87471e-05
threshold=2.4499999880790715 4.4500000476837167 1.8499999642372134
decision_type=2 2 2
left_child=-1 -2 -3
right_child=1 2 -4
leaf_value=0.078895904708416009 -0.072583273854465766 -0.073443653469482437 -0.072847866478553056
leaf_weight=6.8756383359432229 2.582919202744959 2.4388388320803642 3.1432761624455452
leaf_count=35 23 20 27
internal_value=-0.00353144 -0.0729421 -0.0731082
internal_weight=15.0407 8.16503 5.58211
internal_count=105 70 47
is_linear=0
shrinkage=0.1


Tree=37
num_leaves=4
num_cat=0
split_feature=3 2 2
split_gain=2.72555 4.67992 0.458022
threshold=1.8499999642372134 2.4499999880790715 4.4500000476837167
decision_type=2 2 2
left_child=1 -1 -3
right_child=-2 2 -4
leaf_value=-0.072273654437080767 -0.074546289618655837 0.080572180940553628 0.037172757871958166
leaf_weight=3.7569560855627087 3.6825758069753638 4.9222138524055463 4.8061658442020416
leaf_count=35 27 23 20
internal_value=0.00170088 0.0225225 0.0591313
internal_weight=17.1679 13.4853 9.72838
internal_count=105 78 43
is_linear=0
shrinkage=0.1


Tree=38
num_leaves=4
num_cat=0
split_feature=2 0 2
split_gain=7.38712 0.0658031 0.000295883
threshold=4.7500000000000009 6.4500000476837167 2.4499999880790715
decision_type=2 2 2
left_child=2 -2 -1
right_child=1 -3 -4
leaf_value=-0.072263280054427476 0.051127247251603961 0.067615852636537091 -0.073516788987644285
leaf_weight=3.7492176368832615 4.9846445620059949 4.7048461437225342 3.7831900715827942
leaf_count=35 19 21 30
internal_value=0.00138862 0.0591335 -0.0728929
internal_weight=17.2219 9.68949 7.53241
internal_count=105 40 65
is_linear=0
shrinkage=0.1


Tree=39
num_leaves=4
num_cat=0
split_feature=2 2 3
split_gain=7.49461 5.35632e-05 4.08678e-05
threshold=2.4499999880790715 4.4500000476837167 1.8499999642372134
decision_type=2 2 2
left_child=-1 -2 -3
right_child=1 2 -4
leaf_value=0.077180278574436836 -0.071815807032352727 -0.072719581442882611 -0.07214695827574405
leaf_weight=6.176746129989624 2.2962007969617844 2.2201558724045753 2.841569796204567
leaf_count=35 23 20 27
internal_value=-0.00403704 -0.0722164 -0.0723981
internal_weight=13.5347 7.35793 5.06173
internal_count=105 70 47
is_linear=0
shrinkage=0.1


Tree=40
num_leaves=4
num_cat=0
split_feature=3 2 2
split_gain=2.41499 3.99994 0.424218
threshold=1.8499999642372134 2.4499999880790715 4.4500000476837167
decision_type=2 2 2
left_child=1 -1 -3
right_child=-2 2 -4
leaf_value=-0.071544425529342828 -0.073652215138046859 0.078592296330244782 0.035446516192158176
leaf_weight=3.3353046104311934 3.3343678191304216 4.436557933688162 4.6855609565973282
leaf_count=35 27 23 20
internal_value=0.00193519 0.022167 0.0564305
internal_weight=15.7918 12.4574 9.12212
internal_count=105 78 43
is_linear=0
shrinkage=0.1


Tree=41
num_leaves=3
num_cat=0
split_feature=2 2
split_gain=6.32793 0.00022223
threshold=4.7500000000000009 2.4499999880790715
decision_type=2 2
left_child=1 -1
right_child=-2 -3
leaf_value=-0.071535634438046766 0.05569654087288322 -0.072685507385483281
leaf_weight=3.3284186720848092 9.1382021307945234 3.39525505900383
leaf_count=35 40 30
internal_value=0.0015181 -0.0721163
internal_weight=15.8619 6.72367
internal_count=105 65
is_linear=0
shrinkage=0.1


Tree=42
num_leaves=4
num_cat=0
split_feature=2 2 3
split_gain=6.54276 5.59414e-05 3.1914e-05
threshold=2.4499999880790715 4.4500000476837167 1.8499999642372134
decision_type=2 2 2
left_child=-1 -2 -3
right_child=1 2 -4
leaf_value=0.075727451646756094 -0.071150905774308423 -0.072078109063114931 -0.071546999808683162
leaf_weight=5.5293952375650406 2.0372573360800743 2.0191487297415733 2.5732814595103264
leaf_count=35 23 20 27
internal_value=-0.00459514 -0.071587 -0.0717805
internal_weight=12.1591 6.62969 4.59243
internal_count=105 70 47
is_linear=0
shrinkage=0.1


Tree=43
num_leaves=4
num_cat=0
split_feature=3 2 2
split_gain=2.1518 3.42814 0.583751
threshold=1.8499999642372134 2.4499999880790715 4.6499998569488534
decision_type=2 2 2
left_child=1 -1 -3
right_child=-2 2 -4
leaf_value=-0.070913185464339501 -0.072878505605537255 0.077266849749406785 0.024649429034042006
leaf_weight=2.9556038454174987 3.0231624543666848 4.7724782526493055 3.7772715836763382
leaf_count=35 27 27 16
internal_value=0.00219892 0.0219264 0.0540205
internal_weight=14.5285 11.5054 8.54975
internal_count=105 78 43
is_linear=0
shrinkage=0.1


Tree=44
num_leaves=4
num_cat=0
split_feature=2 3 2
split_gain=5.423 0.616354 0.000168352
threshold=4.7500000000000009 1.9499999880790713 2.4499999880790715
decision_type=2 2 2
left_child=2 -2 -1
right_child=1 -3 -4
leaf_value=-0.070905711426391238 0.025169332037207795 0.078635832585757792 -0.071965946851775611
leaf_weight=2.9494906067848214 4.2341870963573438 4.3930895924568176 3.042614571750164
leaf_count=35 17 23 30
internal_value=0.00163656 0.052395 -0.0714441
internal_weight=14.6194 8.62728 5.99211
internal_count=105 40 65
is_linear=0
shrinkage=0.1


Tree=45
num_leaves=4
num_cat=0
split_feature=2 2 3
split_gain=5.71126 5.25072e-05 3.67497e-05
threshold=2.4499999880790715 4.4500000476837167 1.8499999642372134
decision_type=2 2 2
left_child=-1 -2 -3
right_child=1 2 -4
leaf_value=0.074491663704892963 -0.070572927018312567 -0.071551322737512524 -0.0709522258366974
leaf_weight=4.9349822700023651 1.8038694262504575 1.847426004707813 2.2969557419419289
leaf_count=35 23 20 27
internal_value=-0.00503979 -0.0710233 -0.0712193
internal_weight=10.8832 5.94825 4.14438
internal_count=105 70 47
is_linear=0
shrinkage=0.1


Tree=46
num_leaves=4
num_cat=0
split_feature=3 2 2
split_gain=1.8792 2.91457 0.553154
threshold=1.8499999642372134 2.4499999880790715 4.6499998569488534
decision_type=2 2 2
left_child=1 -1 -3
right_child=-2 2 -4
leaf_value=-0.070366044540579167 -0.072106958016507419 0.075801988561818218 0.023122362880136763
leaf_weight=2.6149886399507514 2.7017172798514375 4.2727273702621442 3.7361925095319748
leaf_count=35 27 27 16
internal_value=0.00236025 0.0212977 0.0512267
internal_weight=13.3256 10.6239 8.00892
internal_count=105 78 43
is_linear=0
shrinkage=0.1


Tree=47
num_leaves=4
num_cat=0
split_feature=2 2 2
split_gain=4.6443 0.704239 0.000120005
threshold=4.7500000000000009 5.1499998569488534 2.4499999880790715
decision_type=2 2 2
left_child=2 -2 -1
right_child=1 -3 -4
leaf_value=-0.070359667448745139 0.018456818744026608 0.077495747478304441 -0.071309695541534032
leaf_weight=2.6095721945166597 3.8529991656541807 4.2479656189680099 2.7108141481876373
leaf_count=35 16 24 30
internal_value=0.0017433 0.0494155 -0.0708437
internal_weight=13.4214 8.10096 5.32039
internal_count=105 40 65
is_linear=0
shrinkage=0.1


Tree=48
num_leaves=4
num_cat=0
split_feature=2 2 2
split_gain=4.99323 4.86942e-05 4.37221e-05
threshold=2.4499999880790715 4.4500000476837167 5.1499998569488534
decision_type=2 2 2
left_child=-1 -2 -3
right_child=1 2 -4
leaf_value=0.073436474077097177 -0.07007137049150132 -0.071060304482106554 -0.070375879299620803
leaf_weight=4.393068253993988 1.5948506742715833 1.9418685212731364 1.7971726655960081
leaf_count=35 23 23 24
internal_value=-0.00551141 -0.070534 -0.0707313
internal_weight=9.72696 5.33389 3.73904
internal_count=105 70 47
is_linear=0
shrinkage=0.1


Tree=49
num_leaves=4
num_cat=0
split_feature=3 2 0
split_gain=1.66051 2.49063 0.517883
threshold=1.8499999642372134 2.4499999880790715 6.0499999523162851
decision_type=2 2 2
left_child=1 -1 -3
right_child=-2 2 -4
leaf_value=-0.069891240542002839 -0.071515660935332695 0.074497626211108697 0.021880435035407597
leaf_weight=2.3104388862848264 2.4274256899952897 3.8418660163879395 3.6456029117107391
leaf_count=35 27 24 19
internal_value=0.00252745 0.0208716 0.0488786
internal_weight=12.2253 9.79791 7.48747
internal_count=105 78 43
is_linear=0
shrinkage=0.1


Tree=50
num_leaves=4
num_cat=0
split_feature=2 2 2
split_gain=3.99604 0.642201 8.63576e-05
threshold=4.9500000476837167 4.7500000000000009 2.4499999880790715
decision_type=2 2 2
left_child=1 2 -1
right_child=-2 -3 -4
leaf_value=-0.069885781827036073 0.064140636848413507 -0.0026661582529290198 -0.07074167225332266
leaf_weight=2.3056478127837181 5.6097100079059601 1.9967133700847624 2.4122189730405807
leaf_count=35 33 7 30
internal_value=0.00184274 -0.0502042 -0.0703234
internal_weight=12.3243 6.71458 4.71787
internal_count=105 72 65
is_linear=0
shrinkage=0.1


Tree=51
num_leaves=4
num_cat=0
split_feature=2 2 2
split_gain=4.37601 3.97692e-05 3.96768e-05
threshold=2.4499999880790715 4.4500000476837167 5.1499998569488534
decision_type=2 2 2
left_child=-1 -2 -3
right_child=1 2 -4
leaf_value=0.072532538945089986 -0.069663240188744396 -0.070620583292176464 -0.069933765967523293
leaf_weight=3.9019410610198975 1.4197084195911882 1.7696647420525553 1.6030191779136655
leaf_count=35 23 23 24
internal_value=-0.00609175 -0.0701072 -0.0702941
internal_weight=8.69433 4.79239 3.37268
internal_count=105 70 47
is_linear=0
shrinkage=0.1


Tree=52
num_leaves=3
num_cat=0
split_feature=3 2
split_gain=1.46371 1.50495
threshold=1.8499999642372134 3.5499999523162846
decision_type=2 2
left_child=1 -1
right_child=-2 -3
leaf_value=-0.047480511733707417 -0.071007767161455043 0.044693408110875299
leaf_weight=2.4101976789534074 2.177968457341195 6.6829593852162361
leaf_count=38 27 40
internal_value=0.00262566 0.0202621
internal_weight=11.2711 9.09316
internal_count=105 78
is_linear=0
shrinkage=0.1


Tree=53
num_leaves=4
num_cat=0
split_feature=2 2 2
split_gain=3.45702 0.651452 7.14096e-05
threshold=4.7500000000000009 5.1499998569488534 2.4499999880790715
decision_type=2 2 2
left_child=2 -2 -1
right_child=1 -3 -4
leaf_value=-0.069474098875537058 0.014811646822669259 0.075229131972716468 -0.070298916920743984
leaf_weight=2.0346729196608067 3.6432032287120819 3.4984016567468643 2.1681260839104652
leaf_count=35 16 24 30
internal_value=0.00206001 0.0444079 -0.0698996
internal_weight=11.3444 7.1416 4.2028
internal_count=105 40 65
is_linear=0
shrinkage=0.1


Tree=54
num_leaves=4
num_cat=0
split_feature=2 2 2
split_gain=3.87591 2.46729e-05 4.15184e-05
threshold=2.4499999880790715 4.4500000476837167 5.1499998569488534
decision_type=2 2 2
left_child=-1 -2 -3
right_child=1 2 -4
leaf_value=0.071812636014710718 -0.069387601773730004 -0.070253461775905662 -0.069512111684137137
leaf_weight=3.4920408427715302 1.2985557690262792 1.6231541670858862 1.4130935631692407
leaf_count=35 23 23 24
internal_value=-0.00659146 -0.0697524 -0.0699084
internal_weight=7.82684 4.3348 3.03625
internal_count=105 70 47
is_linear=0
shrinkage=0.1


Tree=55
num_leaves=4
num_cat=0
split_feature=2 2 2
split_gain=1.28855 1.24253 0.649254
threshold=5.1499998569488534 3.5499999523162846 4.7500000000000009
decision_type=2 2 2
left_child=1 -1 -3
right_child=-2 2 -4
leaf_value=-0.045579698637413346 -0.07141211600667155 0.073148804965199113 0.0093939732984283826
leaf_weight=2.1989726684987527 1.917305380105973 3.2248312905430794 3.1649620980024338
leaf_count=38 24 27 16
internal_value=0.00271051 0.0192572 0.0415701
internal_weight=10.5061 8.58877 6.38979
internal_count=105 81 43
is_linear=0
shrinkage=0.1


Tree=56
num_leaves=4
num_cat=0
split_feature=2 3 2
split_gain=3.03076 0.686064 6.56077e-05
threshold=4.7500000000000009 1.8499999642372134 2.4499999880790715
decision_type=2 2 2
left_child=2 -2 -1
right_child=1 -3 -4
leaf_value=-0.069114128022754545 0.0098874446657170739 0.073769865007856039 -0.06994929190806852
leaf_weight=1.7923000380396845 3.2997841984033585 3.4271541386842728 1.9794385358691213
leaf_count=35 13 27 30
internal_value=0.00220157 0.0424334 -0.0695524
internal_weight=10.4987 6.72694 3.77174
internal_count=105 40 65
is_linear=0
shrinkage=0.1


Tree=57
num_leaves=4
num_cat=0
split_feature=2 2 3
split_gain=3.42316 1.48721e-05 3.06815e-05
threshold=2.4499999880790715 4.6499998569488534 1.9499999880790713
decision_type=2 2 2
left_child=-1 -2 -3
right_child=1 2 -4
leaf_value=0.071190071154290394 -0.069156919478113824 -0.069908122833872516 -0.069205776743361896
leaf_weight=3.1234940066933632 1.3958599492907526 1.2720608524978163 1.2170615904033182
leaf_count=35 27 20 23
internal_value=-0.00675278 -0.0694182 -0.0695647
internal_weight=7.00848 3.88498 2.48912
internal_count=105 70 43
is_linear=0
shrinkage=0.1


Tree=58
num_leaves=4
num_cat=0
split_feature=2 2 2
split_gain=1.14046 1.04327 0.585544
threshold=5.1499998569488534 3.5499999523162846 4.7500000000000009
decision_type=2 2 2
left_child=1 -1 -3
right_child=-2 2 -4
leaf_value=-0.043667730220535939 -0.07099710566205357 0.072287382702909436 0.0097084450358596256
leaf_weight=2.0092489384114725 1.7230763733387 2.8623642921447754 3.1304792910814285
leaf_count=38 24 27 16
internal_value=0.00280017 0.0186908 0.039598
internal_weight=9.72517 8.00209 5.99284
internal_count=105 81 43
is_linear=0
shrinkage=0.1


Tree=59
num_leaves=3
num_cat=0
split_feature=2 2
split_gain=2.59606 4.90403e-05
threshold=4.7500000000000009 2.4499999880790715
decision_type=2 2
left_child=1 -1
right_child=-2 -3
leaf_value=-0.068801317541196824 0.039716349859885924 -0.069568493603762646
leaf_weight=1.5774628110229971 6.3321445882320404 1.766080856323242
leaf_count=35 40 30
internal_value=0.00207681 -0.0692065
internal_weight=9.67569 3.34354
internal_count=105 65
is_linear=0
shrinkage=0.1


Tree=60
num_leaves=4
num_cat=0
split_feature=2 2 2
split_gain=3.03848 1.37574e-05 2.43667e-05
threshold=2.4499999880790715 4.4500000476837167 5.1499998569488534
decision_type=2 2 2
left_child=-1 -2 -3
right_child=1 2 -4
leaf_value=0.07065039226294817 -0.068835305586959536 -0.06956083142538115 -0.068930649358795129
leaf_weight=2.7930255234241486 1.0398919321596625 1.3247192092239859 1.1429554447531698
leaf_count=35 23 23 24
internal_value=-0.00717173 -0.0691404 -0.0692689
internal_weight=6.30059 3.50757 2.46767
internal_count=105 70 47
is_linear=0
shrinkage=0.1


Tree=61
num_leaves=3
num_cat=0
split_feature=2 2
split_gain=0.828759 1.07827
threshold=4.9500000476837167 3.5499999523162846
decision_type=2 2
left_child=1 -1
right_child=-2 -3
leaf_value=-0.041749518767906765 -0.043361681920887837 0.04907391680990833
leaf_weight=1.8387981727719305 2.6939798928797245 4.5212699174880981
leaf_count=38 33 34
internal_value=0.00312479 0.0228154
internal_weight=9.05405 6.36007
internal_count=105 72
is_linear=0
shrinkage=0.1


Tree=62
num_leaves=4
num_cat=0
split_feature=2 1 2
split_gain=2.23625 0.632227 0.0318514
threshold=4.9500000476837167 2.8500000238418584 4.1499998569488534
decision_type=2 2 2
left_child=1 -1 -3
right_child=-2 2 -4
leaf_value=-0.0066307322205258028 0.056523456104361963 -0.068527528547948677 -0.09115171767689309
leaf_weight=2.3840694539248943 4.0879104435443878 1.4262032918632033 1.1039434820413587
leaf_count=25 33 36 11
internal_value=0.00187669 -0.0435814 -0.0783988
internal_weight=9.00213 4.91422 2.53015
internal_count=105 72 47
is_linear=0
shrinkage=0.1


Tree=63
num_leaves=4
num_cat=0
split_feature=2 2 2
split_gain=2.70398 8.80052e-06 2.14586e-05
threshold=2.4499999880790715 4.4500000476837167 5.1499998569488534
decision_type=2 2 2
left_child=-1 -2 -3
right_child=1 2 -4
leaf_value=0.070185488010892499 -0.068646374994532952 -0.069296332867403859 -0.06867308894788636
leaf_weight=2.4995224699378014 0.94597967714071307 1.204549126327038 1.0204466357827184
leaf_count=35 23 23 24
internal_value=-0.00759297 -0.0689019 -0.0690105
internal_weight=5.6705 3.17098 2.225
internal_count=105 70 47
is_linear=0
shrinkage=0.1


Tree=64
num_leaves=3
num_cat=0
split_feature=2 2
split_gain=0.666098 0.86484
threshold=4.9500000476837167 3.5499999523162846
decision_type=2 2
left_child=1 -1
right_child=-2 -3
leaf_value=-0.039142309644967815 -0.040079220028496475 0.045234027914014027
leaf_weight=1.6952221207320688 2.5076047629117966 4.2861870899796486
leaf_count=38 33 34
internal_value=0.00318338 0.0213205
internal_weight=8.48901 5.98141
internal_count=105 72
is_linear=0
shrinkage=0.1


Tree=65
num_leaves=4
num_cat=0
split_feature=2 1 2
split_gain=1.98811 0.00205562 4.34112e-05
threshold=4.7500000000000009 2.9500000476837163 2.4499999880790715
decision_type=2 2 2
left_child=2 -2 -1
right_child=1 -3 -4
leaf_value=-0.068296881946980109 0.037297719550702997 0.033495556005133917 -0.06910233441025336
leaf_weight=1.2217443324625494 2.9141307771205902 2.7769405543804169 1.4794305302202699
leaf_count=35 17 23 30
internal_value=0.00191035 0.0354425 -0.068738
internal_weight=8.39225 5.69107 2.70117
internal_count=105 40 65
is_linear=0
shrinkage=0.1


Tree=66
num_leaves=4
num_cat=0
split_feature=2 2 2
split_gain=2.41575 6.20404e-06 1.76241e-05
threshold=2.4499999880790715 5.1499998569488534 4.6499998569488534
decision_type=2 2 2
left_child=-1 2 -2
right_child=1 -3 -4
leaf_value=0.069777942165762705 -0.068512163662992634 -0.068482578855656437 -0.069113184231634192
leaf_weight=2.235931783914566 1.0315490290522578 0.9286510869860648 0.92576098442077626
leaf_count=35 27 24 19
internal_value=-0.00824571 -0.0686954 -0.0687964
internal_weight=5.12189 2.88596 1.95731
internal_count=105 70 46
is_linear=0
shrinkage=0.1


Tree=67
num_leaves=4
num_cat=0
split_feature=2 3 1
split_gain=0.564933 0.615846 0.241447
threshold=4.9500000476837167 1.0500000119209292 3.1499999761581425
decision_type=2 2 2
left_child=1 2 -1
right_child=-2 -3 -4
leaf_value=0.0077705946084369957 -0.037448377117776085 0.042279701262852715 -0.068285169968850493
leaf_weight=0.83657524362206437 2.3753560669720173 3.9440339505672455 0.8330523893237114
leaf_count=16 33 32 24
internal_value=0.00343157 0.0207295 -0.0301771
internal_weight=7.98902 5.61366 1.66963
internal_count=105 72 40
is_linear=0
shrinkage=0.1


Tree=68
num_leaves=5
num_cat=0
split_feature=2 1 1 2
split_gain=1.73362 0.00238357 3.83797e-05 2.80781e-06
threshold=4.7500000000000009 2.9500000476837163 2.8500000238418584 1.5500000119209292
decision_type=2 2 2 2
left_child=2 -2 -1 -4
right_child=1 -3 3 -5
leaf_value=-0.069029012557368916 0.035169020449435172 0.030984387067334675 -0.068081601562452063 -0.068358659432297533
leaf_weight=0.9553681164979938 2.8250419870018959 2.626849927008152 0.76311923190951325 0.70253070257604122
leaf_count=20 17 23 25 20
internal_value=0.00188224 0.0331528 -0.0685359 -0.0682144
internal_weight=7.87291 5.45189 2.42102 1.46565
internal_count=105 40 65 45
is_linear=0
shrinkage=0.1


Tree=69
num_leaves=4
num_cat=0
split_feature=2 2 2
split_gain=2.15615 4.5966e-06 1.30418e-05
threshold=2.4499999880790715 5.1499998569488534 4.6499998569488534
decision_type=2 2 2
left_child=-1 2 -2
right_child=1 -3 -4
leaf_value=0.069414076828092197 -0.068340342738500204 -0.06831380180712418 -0.068882493474098708
leaf_weight=1.9941418953239916 0.93774382025003455 0.84646299481391896 0.84221891313791275
leaf_count=35 27 24 19
internal_value=-0.00898233 -0.0685056 -0.0685969
internal_weight=4.62057 2.62643 1.77996
internal_count=105 70 46
is_linear=0
shrinkage=0.1


Tree=70
num_leaves=4
num_cat=0
split_feature=1 2 0
split_gain=0.52886 0.630268 0.866647
threshold=2.7500000000000004 5.0499999523162851 5.6499998569488534
decision_type=2 2 2
left_child=-1 2 -2
right_child=1 -3 -4
leaf_value=0.040547747541771414 -0.056398174974003991 -0.070184660087569947 0.046501371254374979
leaf_weight=2.5626738928258419 1.3122212458401921 1.4753046371042726 2.1753819324076176
leaf_count=25 36 26 18
internal_value=0.00365663 -0.0153927 0.00778511
internal_weight=7.52558 4.96291 3.4876
internal_count=105 80 54
is_linear=0
shrinkage=0.1


Tree=71
num_leaves=4
num_cat=0
split_feature=3 0 1
split_gain=1.57338 0.927265 0.0560868
threshold=1.8499999642372134 6.1499998569488534 3.1499999761581425
decision_type=2 2 2
left_child=1 2 -1
right_child=-2 -3 -4
leaf_value=-0.055421063862171507 0.071349724413262955 0.020526146608041987 -0.084519972309077249
leaf_weight=1.9409873485565188 2.2638675644993782 2.1931768283247948 1.0055258031934498
leaf_count=37 27 16 25
internal_value=0.00188898 -0.0287062 -0.0653513
internal_weight=7.40356 5.13969 2.94651
internal_count=105 78 62
is_linear=0
shrinkage=0.1


Tree=72
num_leaves=4
num_cat=0
split_feature=2 2 2
split_gain=1.90977 4.61153e-06 1.06333e-05
threshold=2.4499999880790715 5.1499998569488534 4.6499998569488534
decision_type=2 2 2
left_child=-1 2 -2
right_child=1 -3 -4
leaf_value=0.069078395770423545 -0.068177294887824855 -0.068120704629573453 -0.068690835928740396
leaf_weight=1.7661060653626917 0.85082082822918914 0.75036579556763161 0.76638276129961014
leaf_count=35 27 24 19
internal_value=-0.00961996 -0.0683256 -0.0684207
internal_weight=4.13368 2.36757 1.6172
internal_count=105 70 46
is_linear=0
shrinkage=0.1


Tree=73
num_leaves=5
num_cat=0
split_feature=1 2 0 1
split_gain=0.439561 0.572439 0.545688 0.0973226
threshold=2.7500000000000004 5.0499999523162851 5.8500001430511483 3.1499999761581425
decision_type=2 2 2 2
left_child=-1 2 3 -2
right_child=1 -3 -4 -5
leaf_value=0.037629969495205279 -0.014752472239065681 -0.069951833654961076 0.042837961185259406 -0.067922710935200303
leaf_weight=2.472108531743288 0.72794449515640758 1.3305160365998743 1.8856577128171919 0.65311795100569725
leaf_count=25 16 26 14 24
internal_value=0.00362559 -0.0146599 0.00786024 -0.0398972
internal_weight=7.06934 4.59724 3.26672 1.38106
internal_count=105 80 54 40
is_linear=0
shrinkage=0.1


Tree=74
num_leaves=4
num_cat=0
split_feature=2 1 2
split_gain=1.35577 0.00550338 3.02453e-05
threshold=4.7500000000000009 2.9500000476837163 2.4499999880790715
decision_type=2 2 2
left_child=2 -2 -1
right_child=1 -3 -4
leaf_value=-0.067745655521236486 0.033043640581620369 0.026357863044385622 -0.068540893880548653
leaf_weight=0.82145185582339753 2.6552159786224365 2.2956615835428238 1.1447426062077282
leaf_count=35 17 23 30
internal_value=0.00204353 0.0299435 -0.0682087
internal_weight=6.91707 4.95088 1.96619
internal_count=105 40 65
is_linear=0
shrinkage=0.1


Tree=75
num_leaves=4
num_cat=0
split_feature=2 2 2
split_gain=1.70488 3.19079e-06 7.56083e-06
threshold=2.4499999880790715 5.1499998569488534 4.6499998569488534
decision_type=2 2 2
left_child=-1 2 -2
right_child=1 -3 -4
leaf_value=0.06879579164274667 -0.068038672482277171 -0.067992075431044643 -0.068492623674487482
leaf_weight=1.5696768015623095 0.77658926881849788 0.6864703744649886 0.69548961706459522
leaf_count=35 27 24 19
internal_value=-0.010504 -0.0681701 -0.0682531
internal_weight=3.72823 2.15855 1.47208
internal_count=105 70 46
is_linear=0
shrinkage=0.1


Tree=76
num_leaves=4
num_cat=0
split_feature=1 2 0
split_gain=0.37712 0.529872 0.640247
threshold=2.7500000000000004 5.0499999523162851 5.6499998569488534
decision_type=2 2 2
left_child=-1 2 -2
right_child=1 -3 -4
leaf_value=0.035760675123485824 -0.054052559033276895 -0.069662629581654742 0.04172164850556126
leaf_weight=2.3759674225002527 1.0729852039366963 1.2196425423026083 1.9971926882863043
leaf_count=25 36 26 18
internal_value=0.00380019 -0.0139015 0.00824987
internal_weight=6.66579 4.28982 3.07018
internal_count=105 80 54
is_linear=0
shrinkage=0.1


Tree=77
num_leaves=4
num_cat=0
split_feature=3 0 1
split_gain=1.24235 0.809732 0.0567311
threshold=1.8499999642372134 6.1499998569488534 3.1499999761581425
decision_type=2 2 2
left_child=1 2 -1
right_child=-2 -3 -4
leaf_value=-0.052943975144071169 0.07054881874888809 0.020731593323777386 -0.084642333883504881
leaf_weight=1.7186778541654351 1.8856572322547434 2.0723444893956184 0.84083366766571987
leaf_count=37 27 16 25
internal_value=0.002122 -0.025735 -0.0633573
internal_weight=6.51751 4.63186 2.55951
internal_count=105 78 62
is_linear=0
shrinkage=0.1


Tree=78
num_leaves=4
num_cat=0
split_feature=2 3 2
split_gain=1.51397 3.76988e-06 5.73597e-06
threshold=2.4499999880790715 1.8499999642372134 4.4500000476837167
decision_type=2 2 2
left_child=-1 2 -2
right_child=1 -3 -4
leaf_value=0.068542672472751073 -0.0679068891848571 -0.067840997671035561 -0.068333783386496857
leaf_weight=1.3908155523240568 0.59649349376559235 0.68647402338683594 0.66637570783495903
leaf_count=35 23 27 20
internal_value=-0.011162 -0.0680296 -0.0681321
internal_weight=3.34016 1.94934 1.26287
internal_count=105 70 43
is_linear=0
shrinkage=0.1


Tree=79
num_leaves=4
num_cat=0
split_feature=2 0 2
split_gain=0.315207 0.227095 0.45479
threshold=4.9500000476837167 5.6499998569488534 2.4499999880790715
decision_type=2 2 2
left_child=1 2 -1
right_child=-2 -3 -4
leaf_value=-0.067693338302587919 -0.03039177042273733 0.034494753933910528 0.043672515033628533
leaf_weight=0.7562449052929876 1.8936595208942888 2.929383397102356 0.71188094094395638
leaf_count=34 33 27 11
internal_value=0.00371848 0.0184071 -0.013693
internal_weight=6.29117 4.39751 1.46813
internal_count=105 72 45
is_linear=0
shrinkage=0.1


Tree=80
num_leaves=3
num_cat=0
split_feature=2 2
split_gain=1.07585 2.27165e-05
threshold=4.7500000000000009 2.4499999880790715
decision_type=2 2
left_child=1 -1
right_child=-2 -3
leaf_value=-0.067486335269121081 0.027305094507427477 -0.068256660044143214
leaf_weight=0.62823630496859528 4.5111054293811321 0.97997055202722549
leaf_count=35 40 30
internal_value=0.00226974 -0.0679557
internal_weight=6.11931 1.60821
internal_count=105 65
is_linear=0
shrinkage=0.1


Tree=81
num_leaves=4
num_cat=0
split_feature=2 3 2
split_gain=1.34449 2.79139e-06 4.66902e-06
threshold=2.4499999880790715 1.8499999642372134 4.4500000476837167
decision_type=2 2 2
left_child=-1 2 -2
right_child=1 -3 -4
leaf_value=0.068307747411402706 -0.067783914628455358 -0.067735780331168352 -0.068187976648925411
leaf_weight=1.2245566658675673 0.53935938887298085 0.62690089084208001 0.60873834788799286
leaf_count=35 23 27 20
internal_value=-0.012297 -0.0679055 -0.0679982
internal_weight=2.99956 1.775 1.1481
internal_count=105 70 43
is_linear=0
shrinkage=0.1


Tree=82
num_leaves=4
num_cat=0
split_feature=0 3 1
split_gain=0.321664 0.770569 0.11917
threshold=6.1499998569488534 1.5500000119209292 2.9500000476837163
decision_type=2 2 2
left_child=1 2 -1
right_child=-2 -3 -4
leaf_value=0.011137547552278075 -0.021133782594318001 0.10091742786972345 -0.036605718637555781
leaf_weight=1.415880341082812 2.7606065906584263 0.95086405053734768 0.82885835878550995
leaf_count=22 38 8 37
internal_value=0.0038691 0.0254685 -0.00649141
internal_weight=5.95621 3.1956 2.24474
internal_count=105 67 59
is_linear=0
shrinkage=0.1


Tree=83
num_leaves=4
num_cat=0
split_feature=3 0 1
split_gain=0.998307 0.727133 0.0536466
threshold=1.8499999642372134 6.1499998569488534 3.1499999761581425
decision_type=2 2 2
left_child=1 2 -1
right_child=-2 -3 -4
leaf_value=-0.051491555550363922 0.069973701853288328 0.021127417580282398 -0.084726917043178834
leaf_weight=1.5307992696762087 1.5879014432430265 1.9795870408415792 0.71136069763451804
leaf_count=37 27 16 25
internal_value=0.00238229 -0.0230405 -0.062036
internal_weight=5.80965 4.22175 2.24216
internal_count=105 78 62
is_linear=0
shrinkage=0.1


Tree=84
num_leaves=4
num_cat=0
split_feature=2 3 2
split_gain=1.20792 3.58225e-06 5.1135e-06
threshold=2.4499999880790715 1.8499999642372134 4.6499998569488534
decision_type=2 2 2
left_child=-1 2 -2
right_child=1 -3 -4
leaf_value=0.068125771641040236 -0.067718942126111945 -0.067599244417674453 -0.068157425078838804
leaf_weight=1.0927477125078442 0.60081622563302495 0.54910268820822228 0.47719168849289417
leaf_count=35 27 27 16
internal_value=-0.0131939 -0.0678071 -0.067913
internal_weight=2.71986 1.62711 1.07801
internal_count=105 70 43
is_linear=0
shrinkage=0.1


Tree=85
num_leaves=4
num_cat=0
split_feature=2 3 2
split_gain=0.268481 0.637811 0.68616
threshold=4.9500000476837167 1.5500000119209292 3.5499999523162846
decision_type=2 2 2
left_child=1 2 -1
right_child=-2 -3 -4
leaf_value=-0.033002755796190379 -0.028492386307315865 -0.044892222727427489 0.074825967841514615
leaf_weight=0.83320400305092368 1.7928880136460064 1.1477260738611219 2.0229763276875019
leaf_count=38 33 4 30
internal_value=0.00366849 0.0180696 0.0433702
internal_weight=5.79679 4.00391 2.85618
internal_count=105 72 68
is_linear=0
shrinkage=0.1


Tree=86
num_leaves=6
num_cat=0
split_feature=3 0 1 2 2
split_gain=0.901048 0.590653 1.17624 0.27653 6.14841e-06
threshold=1.8499999642372134 6.1499998569488534 2.6499999761581425 4.7500000000000009 3.5499999523162846
decision_type=2 2 2 2 2
left_child=1 2 -1 4 -4
right_child=-2 -3 3 -5 -6
leaf_value=0.053747911200215708 0.069838470192268035 0.018029257491856465 -0.067284117537702109 -0.15404685923580982 -0.067839317222970361
leaf_weight=0.65756383165717158 1.4703076183795927 1.9833819046616552 0.46272505912929751 0.67672790586948395 0.35059063695371151
leaf_count=11 27 16 34 3 14
internal_value=0.0026101 -0.0213179 -0.0576563 -0.106819 -0.0675234
internal_weight=5.6013 4.13099 2.14761 1.49004 0.813316
internal_count=105 78 62 51 48
is_linear=0
shrinkage=0.1


Tree=87
num_leaves=4
num_cat=0
split_feature=2 3 2
split_gain=1.07999 3.9459e-06 5.65134e-06
threshold=2.4499999880790715 1.8499999642372134 4.6499998569488534
decision_type=2 2 2
left_child=-1 2 -2
right_child=1 -3 -4
leaf_value=0.067970767550424457 -0.067611021385741196 -0.067481613457580969 -0.068092911190660341
leaf_weight=0.97960323654115233 0.53269090503454186 0.48143565095961094 0.44806596823036671
leaf_count=35 27 27 16
internal_value=-0.013281 -0.0677161 -0.0678312
internal_weight=2.4418 1.46219 0.980757
internal_count=105 70 43
is_linear=0
shrinkage=0.1


Tree=88
num_leaves=4
num_cat=0
split_feature=1 3 2
split_gain=0.2736 0.508034 0.589714
threshold=2.7500000000000004 1.5500000119209292 4.0499999523162851
decision_type=2 2 2
left_child=-1 2 -2
right_child=1 -3 -4
leaf_value=0.032017794660094252 -0.049593740363261279 -0.050787895596721526 0.074234527643440004
leaf_weight=2.0992180481553078 0.62539446540176891 1.7799454014748333 0.99884139001369476
leaf_count=25 36 29 15
internal_value=0.00362422 -0.0138849 0.0265558
internal_weight=5.5034 3.40418 1.62424
internal_count=105 80 51
is_linear=0
shrinkage=0.1


Tree=89
num_leaves=6
num_cat=0
split_feature=3 0 3 1 2
split_gain=0.795633 0.533857 0.79917 0.928519 1.00393e-05
threshold=1.8499999642372134 6.1499998569488534 1.5500000119209292 2.2500000000000004 2.4499999880790715
decision_type=2 2 2 2 2
left_child=1 2 3 -1 -5
right_child=-2 -3 -4 4 -6
leaf_value=0.10809947210684544 0.06950468917654852 0.018029532564234254 -0.14260159537267322 -0.067216401417651714 -0.067874751215703077
leaf_weight=0.44357287138700552 1.3248429782688615 1.9232085794210432 0.69446167349815358 0.42271773889660835 0.51239077001810074
leaf_count=3 27 16 3 35 21
internal_value=0.0023461 -0.0199179 -0.0551208 -0.0110555 -0.0675771
internal_weight=5.32119 3.99635 2.07314 1.37868 0.935109
internal_count=105 78 62 59 56
is_linear=0
shrinkage=0.1


Tree=90
num_leaves=4
num_cat=0
split_feature=2 3 2
split_gain=0.962598 4.11463e-06 5.9407e-06
threshold=2.4499999880790715 1.8499999642372134 4.6499998569488534
decision_type=2 2 2
left_child=-1 2 -2
right_child=1 -3 -4
leaf_value=0.067821802660734398 -0.06751707091277985 -0.067378879483819085 -0.068032228213203053
leaf_weight=0.86999136395752463 0.47990021947771289 0.42198475077748299 0.41955024190247059
leaf_count=35 27 27 16
internal_value=-0.0138599 -0.0676365 -0.0677574
internal_weight=2.19143 1.32144 0.89945
internal_count=105 70 43
is_linear=0
shrinkage=0.1


Tree=91
num_leaves=4
num_cat=0
split_feature=1 3 2
split_gain=0.248542 0.481574 0.520561
threshold=2.7500000000000004 1.5500000119209292 4.0499999523162851
decision_type=2 2 2
left_child=-1 2 -2
right_child=1 -3 -4
leaf_value=0.030547201441665298 -0.047974370063349259 -0.050452598687832154 0.073941518624060829
leaf_weight=2.0654248502105474 0.56536950543522857 1.6939681172370908 0.92036482319235802
leaf_count=25 36 29 15
internal_value=0.0035381 -0.0140061 0.0275486
internal_weight=5.24513 3.1797 1.48573
internal_count=105 80 51
is_linear=0
shrinkage=0.1


Tree=92
num_leaves=5
num_cat=0
split_feature=3 2 2 2
split_gain=0.717201 0.0231136 0.000136194 1.31356e-05
threshold=1.4499999880790713 5.0499999523162851 4.1499998569488534 2.4499999880790715
decision_type=2 2 2 2
left_child=2 -2 3 -1
right_child=1 -3 -4 -5
leaf_value=-0.067147456732984084 0.029024042741036801 0.013591550534474596 -0.06992362155852018 -0.067982745436483638
leaf_weight=0.3704622248187659 2.2405210621654992 1.7121111676096914 0.3658823799341917 0.38281364925205708
leaf_count=35 14 30 11 15
internal_value=0.00232957 0.0223393 -0.0683408 -0.0675719
internal_weight=5.07179 3.95263 1.11916 0.753276
internal_count=105 44 61 50
is_linear=0
shrinkage=0.1


Tree=93
num_leaves=4
num_cat=0
split_feature=2 3 2
split_gain=0.862229 3.19793e-06 5.07633e-06
threshold=2.4499999880790715 1.8499999642372134 4.6499998569488534
decision_type=2 2 2
left_child=-1 2 -2
right_child=1 -3 -4
leaf_value=0.067691572404437683 -0.067436009874342367 -0.06732262820828816 -0.067935148732217454
leaf_weight=0.77323584817349922 0.43317730538547017 0.38943369127810001 0.3847128301858902
leaf_count=35 27 27 16
internal_value=-0.0147551 -0.0675585 -0.0676708
internal_weight=1.98056 1.20732 0.81789
internal_count=105 70 43
is_linear=0
shrinkage=0.1


Tree=94
num_leaves=5
num_cat=0
split_feature=0 3 0 2
split_gain=0.235849 0.60346 0.222023 0.499241
threshold=6.1499998569488534 1.5500000119209292 5.9500000476837167 2.4499999880790715
decision_type=2 2 2 2
left_child=1 2 3 -1
right_child=-2 -3 -4 -5
leaf_value=-0.067264630747498957 -0.019293527940681041 0.087085415698182234 -0.063549329247204578 0.068597839645639244
leaf_weight=0.45439227111637615 2.3583096712827682 0.96794362366199482 0.55857294797897328 0.66818314231932163
leaf_count=35 38 8 6 18
internal_value=0.00370813 0.024185 -0.0120308 0.0136039
internal_weight=5.0074 2.64909 1.68115 1.12258
internal_count=105 67 59 53
is_linear=0
shrinkage=0.1


Tree=95
num_leaves=6
num_cat=0
split_feature=3 0 1 2 2
split_gain=0.660319 0.466104 1.04794 0.138637 2.44202e-06
threshold=1.8499999642372134 6.1499998569488534 2.6499999761581425 4.7500000000000009 3.5499999523162846
decision_type=2 2 2 2 2
left_child=1 2 -1 4 -4
right_child=-2 -3 3 -5 -6
leaf_value=0.053230272639423981 0.069087529546819876 0.01811330642104805 -0.067079684909443923 -0.13355913140097986 -0.067499148436391029
leaf_weight=0.62760561704635653 1.1318694129586218 1.8181236628443 0.31140033155679681 0.71947883069515228 0.25038839690387249
leaf_count=11 27 16 34 3 14
internal_value=0.00219296 -0.0181226 -0.0526358 -0.104492 -0.0672666
internal_weight=4.85887 3.727 1.90887 1.28127 0.561789
internal_count=105 78 62 51 48
is_linear=0
shrinkage=0.1


Tree=96
num_leaves=4
num_cat=0
split_feature=2 3 2
split_gain=0.766407 3.23653e-06 5.0613e-06
threshold=2.4499999880790715 1.8499999642372134 4.6499998569488534
decision_type=2 2 2
left_child=-1 2 -2
right_child=1 -3 -4
leaf_value=0.067566442253581716 -0.067361007136656312 -0.067239448617342532 -0.067877647943606276
leaf_weight=0.67965900711715233 0.39291737880557753 0.34091187547892332 0.36648315005004406
leaf_count=35 27 27 16
internal_value=-0.0159238 -0.0674954 -0.0676103
internal_weight=1.77997 1.10031 0.759401
internal_count=105 70 43
is_linear=0
shrinkage=0.1


Tree=97
num_leaves=4
num_cat=0
split_feature=1 3 2
split_gain=0.213964 0.487116 0.353077
threshold=2.7500000000000004 1.5500000119209292 4.1499998569488534
decision_type=2 2 2
left_child=-1 2 -2
right_child=1 -3 -4
leaf_value=0.028586632302861431 -0.032781091107292375 -0.050735933193605934 0.074426937948493171
leaf_weight=2.0035795271396637 0.50887186825275443 1.6017050072550771 0.77511809021234512
leaf_count=25 38 29 13
internal_value=0.00348107 -0.0139501 0.0319382
internal_weight=4.88927 2.88569 1.28399
internal_count=105 80 51
is_linear=0
shrinkage=0.1


Tree=98
num_leaves=7
num_cat=0
split_feature=3 0 3 2 1 1
split_gain=0.599829 0.366846 0.567898 0.949786 9.23183e-06 4.41288e-07
threshold=1.8499999642372134 6.1499998569488534 1.5500000119209292 4.9500000476837167 2.8500000238418584 3.1499999761581425
decision_type=2 2 2 2 2 2
left_child=1 2 3 4 -1 -6
right_child=-2 -3 -4 -5 5 -7
leaf_value=-0.067825375461776735 0.069010248934715954 0.015397272742996349 -0.11533911180657248 0.12737717853490724 -0.067232148904606395 -0.067016439890931936
leaf_weight=0.37533410731703065 1.0518761649727819 1.8202151246368883 0.74586349725723255 0.37418004870414734 0.19254396576434374 0.18689451087266207
leaf_count=17 27 16 3 1 17 24
internal_value=0.00238556 -0.0165807 -0.0476274 -0.00289235 -0.0674737 -0.0671259
internal_weight=4.74691 3.69503 1.87482 1.12895 0.754773 0.379438
internal_count=105 78 62 59 58 41
is_linear=0
shrinkage=0.1


Tree=99
num_leaves=4
num_cat=0
split_feature=2 3 2
split_gain=0.688595 3.29657e-06 5.1075e-06
threshold=2.4499999880790715 1.8499999642372134 4.6499998569488534
decision_type=2 2 2
left_child=-1 2 -2
right_child=1 -3 -4
leaf_value=0.06747230916118177 -0.067299541663017784 -0.06716740584958461 -0.067839790777183717
leaf_weight=0.6088758148252964 0.35718713421374559 0.29864348936825991 0.34306823089718819
leaf_count=35 27 27 16
internal_value=-0.0163512 -0.0674456 -0.0675642
internal_weight=1.60777 0.998899 0.700255
internal_count=105 70 43
is_linear=0
shrinkage=0.1


Tree=100
num_leaves=4
num_cat=0
split_feature=1 3 2
split_gain=0.195812 0.458592 0.314071
threshold=2.7500000000000004 1.5500000119209292 4.1499998569488534
decision_type=2 2 2
left_child=-1 2 -2
right_child=1 -3 -4
leaf_value=0.027415253807612186 -0.031063249432152787 -0.050218928217605575 0.074112339320880141
leaf_weight=1.9654448702931402 0.46914309449493907 1.5297990106046198 0.71913778223097324
leaf_count=25 38 29 13
internal_value=0.00336972 -0.0140176 0.0325881
internal_weight=4.68352 2.71808 1.18828
internal_count=105 80 51
is_linear=0
shrinkage=0.1


Tree=101
num_leaves=5
num_cat=0
split_feature=2 2 1 3
split_gain=0.536213 0.0806023 8.0314e-06 4.23827e-06
threshold=4.7500000000000009 4.9500000476837167 2.8500000238418584 1.2500000000000002
decision_type=2 2 2 2
left_child=2 -2 -1 -4
right_child=1 -3 3 -5
leaf_value=-0.067862233289031057 0.0028762487164160234 0.032709508562602276 -0.06699005710819185 -0.06762003842552286
leaf_weight=0.44791364576667536 1.6534737348556521 2.002289704978466 0.24975719628855586 0.18655961006879807
leaf_count=20 7 33 35 10
internal_value=0.00231429 0.0192162 -0.0675648 -0.0672594
internal_weight=4.53999 3.65576 0.88423 0.436317
internal_count=105 40 65 45
is_linear=0
shrinkage=0.1


Tree=102
num_leaves=4
num_cat=0
split_feature=2 3 2
split_gain=0.620082 2.71659e-06 4.2339e-06
threshold=2.4499999880790715 1.8499999642372134 4.6499998569488534
decision_type=2 2 2
left_child=-1 2 -2
right_child=1 -3 -4
leaf_value=0.067389330123892741 -0.067245780467099378 -0.067120986408983188 -0.067760537011802457
leaf_weight=0.54611211270093918 0.32522890344262123 0.27121935971081257 0.31410513445734978
leaf_count=35 27 27 16
internal_value=-0.0168581 -0.0673862 -0.0674987
internal_weight=1.45667 0.910553 0.639334
internal_count=105 70 43
is_linear=0
shrinkage=0.1


Tree=103
num_leaves=5
num_cat=0
split_feature=0 3 3 3
split_gain=0.184084 0.447188 0.297232 0.382944
threshold=6.1499998569488534 1.5500000119209292 1.3499999642372134 0.70000000298023235
decision_type=2 2 2 2
left_child=1 2 3 -1
right_child=-2 -3 -4 -5
leaf_value=-0.067102064492032362 -0.017980920171208906 0.073596931508175173 -0.080061372270761821 0.068215122483265819
leaf_weight=0.3296506227925422 2.1225275015458465 0.99451736547052849 0.45964660495519638 0.57206530123949051
leaf_count=35 38 8 5 19
internal_value=0.00337883 0.0226229 -0.0146153 0.0187457
internal_weight=4.47841 2.35588 1.36136 0.901716
internal_count=105 67 59 54
is_linear=0
shrinkage=0.1


Tree=104
num_leaves=7
num_cat=0
split_feature=3 0 1 2 2 2
split_gain=0.496458 0.338458 0.852227 0.0640079 0.00747059 1.36697e-06
threshold=1.8499999642372134 6.1499998569488534 2.6499999761581425 5.0499999523162851 4.7500000000000009 3.5499999523162846
decision_type=2 2 2 2 2 2
left_child=1 2 -1 4 5 -4
right_child=-2 -3 3 -5 -6 -7
leaf_value=0.05277713922764659 0.068699649431713708 0.016560379417042911 -0.066943129124645451 -0.12359798999841753 -0.088453715371372005 -0.067313365443887593
leaf_weight=0.58075675368309054 0.89136483334004868 1.7108710184693334 0.20929109770804621 0.48003052175045013 0.27846223115921021 0.19049041345715523
leaf_count=11 27 16 34 2 1 14
internal_value=0.00217099 -0.0150183 -0.0460856 -0.0956552 -0.0758786 -0.0671195
internal_weight=4.34127 3.4499 1.73903 1.15827 0.678244 0.399782
internal_count=105 78 62 51 49 48
is_linear=0
shrinkage=0.1


Tree=105
num_leaves=4
num_cat=0
split_feature=2 3 2
split_gain=0.551071 2.54523e-06 5.10897e-06
threshold=2.4499999880790715 1.8499999642372134 4.7500000000000009
decision_type=2 2 2
left_child=-1 2 -2
right_child=1 -3 -4
leaf_value=0.067302122479709306 -0.067190140879614155 -0.067063566434792138 -0.067781654680989276
leaf_weight=0.4797771330922842 0.33093092683702707 0.23735309764742851 0.26131893508136272
leaf_count=35 30 27 13
internal_value=-0.0180052 -0.0673402 -0.0674511
internal_weight=1.30938 0.829603 0.59225
internal_count=105 70 43
is_linear=0
shrinkage=0.1


Tree=106
num_leaves=5
num_cat=0
split_feature=3 0 0 2
split_gain=0.195142 0.50617 0.28507 0.32756
threshold=1.5500000119209292 6.0499999523162851 5.9500000476837167 2.4499999880790715
decision_type=2 2 2 2
left_child=1 2 3 -1
right_child=-2 -3 -4 -5
leaf_value=-0.067047478326073898 -0.017616428928800013 0.077800540235418603 -0.085813253377489129 0.068058993918274219
leaf_weight=0.28878145664930366 2.226488521322608 0.97767219692468632 0.41835128329694271 0.47397315409034491
leaf_count=35 36 13 3 18
internal_value=0.00315525 0.0245784 -0.0194767 0.0169072
internal_weight=4.38527 2.15878 1.18111 0.762755
internal_count=105 69 56 53
is_linear=0
shrinkage=0.1


Tree=107
num_leaves=7
num_cat=0
split_feature=3 0 3 2 1 2
split_gain=0.45431 0.265666 0.419998 0.729328 5.87468e-06 1.05562e-06
threshold=1.8499999642372134 6.1499998569488534 1.5500000119209292 4.9500000476837167 2.6499999761581425 3.5499999523162846
decision_type=2 2 2 2 2 2
left_child=1 2 3 4 -1 -6
right_child=-2 -3 -4 -5 5 -7
leaf_value=-0.067745672216660002 0.068646314555710408 0.014067927572142386 -0.095392824064782958 0.11418411403236811 -0.066908567591240684 -0.067252571428326011
leaf_weight=0.2068666107952597 0.83046406134963024 1.7124412599951027 0.78632077574729919 0.36445316672325134 0.18331526778638363 0.17375544644892216
leaf_count=10 27 16 3 1 34 14
internal_value=0.00228743 -0.0137926 -0.0416162 0.00393108 -0.0673216 -0.067076
internal_weight=4.25762 3.42715 1.71471 0.92839 0.563937 0.357071
internal_count=105 78 62 59 58 48
is_linear=0
shrinkage=0.1


Tree=108
num_leaves=4
num_cat=0
split_feature=2 3 2
split_gain=0.486817 2.41142e-06 5.23552e-06
threshold=2.4499999880790715 1.8499999642372134 4.7500000000000009
decision_type=2 2 2
left_child=-1 2 -2
right_child=1 -3 -4
leaf_value=0.06722229148308205 -0.067128238042810678 -0.067013702326569211 -0.067753836184812719
leaf_weight=0.42047495394945145 0.29216593177989125 0.20781530905514956 0.24675363302230835
leaf_count=35 30 27 13
internal_value=-0.0188417 -0.0673031 -0.0674147
internal_weight=1.16721 0.746735 0.53892
internal_count=105 70 43
is_linear=0
shrinkage=0.1


Tree=109
num_leaves=5
num_cat=0
split_feature=3 0 3 3
split_gain=0.194018 0.454997 0.259215 0.290836
threshold=1.5500000119209292 6.0499999523162851 1.4499999880790713 0.70000000298023235
decision_type=2 2 2 2
left_child=1 2 3 -1
right_child=-2 -3 -4 -5
leaf_value=-0.06699979485363898 -0.017525682401084298 0.077260298150172241 -0.084307685603641769 0.067931696255873489
leaf_weight=0.25295741856098153 2.1775180781260133 0.91970186121761788 0.38495631329715252 0.43349590431898832
leaf_count=35 36 13 3 18
internal_value=0.00310394 0.0256649 -0.0186248 0.0182096
internal_weight=4.16863 1.99111 1.07141 0.686453
internal_count=105 69 56 53
is_linear=0
shrinkage=0.1


Tree=110
num_leaves=6
num_cat=0
split_feature=3 1 2 0 2
split_gain=0.365598 0.663748 0.00666841 0.00010422 2.76456e-06
threshold=1.5500000119209292 2.2500000000000004 4.8500001430511483 6.3500001430511483 2.4499999880790715
decision_type=2 2 2 2 2
left_child=1 -1 3 4 -3
right_child=-2 2 -4 -5 -6
leaf_value=0.069875531884223671 0.026507385565155445 -0.066887398049935265 -0.083437488603554683 -0.069846586881667325 -0.067392053884711881
leaf_weight=0.43953329510986794 2.4539680015295744 0.16919771628454305 0.47479578852653503 0.21998520009219646 0.30284929508343339
leaf_count=4 36 35 2 6 22
internal_value=0.00222964 -0.0348584 -0.0743107 -0.0680489 -0.0672112
internal_weight=4.06033 1.60636 1.16683 0.692032 0.472047
internal_count=105 69 65 63 57
is_linear=0
shrinkage=0.1


Tree=111
num_leaves=4
num_cat=0
split_feature=2 3 2
split_gain=0.430402 1.88797e-06 4.3544e-06
threshold=2.4499999880790715 1.8499999642372134 4.7500000000000009
decision_type=2 2 2
left_child=-1 2 -2
right_child=1 -3 -4
leaf_value=0.067152562859831483 -0.067074099413003976 -0.066982940541715691 -0.067674736350791173
leaf_weight=0.3684422941878438 0.2579425135627389 0.18955535674467683 0.22684855293482542
leaf_count=35 30 27 13
internal_value=-0.0197627 -0.0672505 -0.0673552
internal_weight=1.04279 0.674346 0.484791
internal_count=105 70 43
is_linear=0
shrinkage=0.1


Tree=112
num_leaves=5
num_cat=0
split_feature=1 3 2 1
split_gain=0.201156 0.393121 0.164245 0.085229
threshold=2.7500000000000004 1.5500000119209292 4.2500000000000009 3.0499999523162846
decision_type=2 2 2 2
left_child=-1 2 3 -2
right_child=1 -3 -4 -5
leaf_value=0.028913334849247876 0.034286736298932356 -0.049556090340774232 0.073160242752461496 -0.066939552234468985
leaf_weight=1.7164456034079196 0.16326183406636152 1.377438075840473 0.50608648918569088 0.16956342570483685
leaf_count=25 13 29 10 28
internal_value=0.00321409 -0.0166886 0.0372776 -0.0172847
internal_weight=3.9328 2.21635 0.838912 0.332825
internal_count=105 80 51 41
is_linear=0
shrinkage=0.1


Tree=113
num_leaves=4
num_cat=0
split_feature=0 1 1
split_gain=0.322018 0.430353 0.193586
threshold=6.1499998569488534 2.6499999761581425 2.9500000476837163
decision_type=2 2 2
left_child=1 -1 -3
right_child=-2 2 -4
leaf_value=0.045839391553807445 0.029689005652603091 -0.099223062066307252 -0.021602044743754465
leaf_weight=0.54952034028247032 2.0131121352314949 0.63411720609292366 0.65132556902244687
leaf_count=12 38 16 39
internal_value=0.00207064 -0.0282291 -0.059893
internal_weight=3.84808 1.83496 1.28544
internal_count=105 67 55
is_linear=0
shrinkage=0.1


Tree=114
num_leaves=4
num_cat=0
split_feature=2 3 2
split_gain=0.391398 1.63803e-06 4.0894e-06
threshold=2.4499999880790715 1.8499999642372134 4.7500000000000009
decision_type=2 2 2
left_child=-1 2 -2
right_child=1 -3 -4
leaf_value=0.067109801077826908 -0.067032228335663843 -0.06696238242320382 -0.067639665926433959
leaf_weight=0.33357894793152809 0.23163757845759392 0.17600722843781114 0.21250554360449314
leaf_count=35 30 27 13
internal_value=-0.0202368 -0.0672206 -0.0673229
internal_weight=0.953729 0.62015 0.444143
internal_count=105 70 43
is_linear=0
shrinkage=0.1


Tree=115
num_leaves=5
num_cat=0
split_feature=0 3 2 1
split_gain=0.179137 0.269475 0.296991 0.134211
threshold=6.1499998569488534 1.5500000119209292 4.6499998569488534 2.9500000476837163
decision_type=2 2 2 2
left_child=1 2 3 -1
right_child=-2 -3 -4 -5
leaf_value=0.061740110733196865 -0.019626195995180545 0.059244935956325295 -0.08921286008103177 -0.032445609247547601
leaf_weight=0.40044923871755678 1.8279437152668832 1.0339508671313522 0.34154491871595383 0.24316176678985357
leaf_count=20 38 8 2 37
internal_value=0.00305294 0.0235849 -0.0138414 0.0261559
internal_weight=3.84705 2.01911 0.985156 0.643611
internal_count=105 67 59 57
is_linear=0
shrinkage=0.1


Tree=116
num_leaves=5
num_cat=0
split_feature=3 0 1 1
split_gain=0.378773 0.287927 0.545523 0.62209
threshold=1.8499999642372134 6.1499998569488534 2.6499999761581425 2.9500000476837163
decision_type=2 2 2 2
left_child=1 2 -1 -4
right_child=-2 -3 3 -5
leaf_value=0.042382040128242843 0.068484282781244674 0.017799177613662107 -0.17922642653984838 -0.022097095515608886
leaf_weight=0.50282330019399601 0.69858152046799649 1.5261695235967634 0.4166557560674844 0.63744837231934071
leaf_count=11 27 16 12 39
internal_value=0.00199795 -0.0130668 -0.043323 -0.0842056
internal_weight=3.78168 3.0831 1.55693 1.0541
internal_count=105 78 62 51
is_linear=0
shrinkage=0.1


Tree=117
num_leaves=4
num_cat=0
split_feature=2 3 2
split_gain=0.357306 1.45984e-06 3.57628e-06
threshold=2.4499999880790715 1.8499999642372134 4.7500000000000009
decision_type=2 2 2
left_child=-1 2 -2
right_child=1 -3 -4
leaf_value=0.067075326903629051 -0.066999256109220376 -0.066925090747116806 -0.067588949983146587
leaf_weight=0.30512825772166252 0.21149009093642235 0.1539827873930335 0.20019507594406605
leaf_count=35 30 27 13
internal_value=-0.0201418 -0.0671878 -0.067286
internal_weight=0.870796 0.565668 0.411685
internal_count=105 70 43
is_linear=0
shrinkage=0.1


Tree=118
num_leaves=5
num_cat=0
split_feature=3 0 2 1
split_gain=0.180337 0.371657 0.272997 0.12758
threshold=1.5500000119209292 6.0499999523162851 4.9500000476837167 2.9500000476837163
decision_type=2 2 2 2
left_child=1 2 3 -1
right_child=-2 -3 -4 -5
leaf_value=0.060780588052343022 -0.016685300062734141 0.076149671338990754 -0.093756691928373631 -0.038254989375707177
leaf_weight=0.346701624337584 2.109777569770813 0.80574343912303448 0.30818033218383789 0.20818527322262526
leaf_count=19 36 13 1 36
internal_value=0.00274427 0.0273079 -0.0182898 0.0236239
internal_weight=3.77859 1.66881 0.863067 0.554887
internal_count=105 69 56 55
is_linear=0
shrinkage=0.1


Tree=119
num_leaves=7
num_cat=0
split_feature=3 1 2 0 1 2
split_gain=0.307284 0.505351 0.0043841 7.25812e-05 2.39776e-06 3.57121e-07
threshold=1.5500000119209292 2.2500000000000004 4.8500001430511483 6.4500000476837167 2.6499999761581425 3.5499999523162846
decision_type=2 2 2 2 2 2
left_child=1 -1 3 4 -3 -6
right_child=-2 2 -4 -5 5 -7
leaf_value=0.058567454810546184 0.024246490499389966 -0.067468597045390377 -0.081346712165460341 -0.069598770854612607 -0.066820861956556676 -0.067066071224434393
leaf_weight=0.40718970447778724 2.3177547818049788 0.13859960483387113 0.43484596908092499 0.17591231409460306 0.11709599988535047 0.12052905606105924
leaf_count=4 36 9 2 5 34 15
internal_value=0.00193159 -0.035166 -0.0738367 -0.067922 -0.067138 -0.0669452
internal_weight=3.71193 1.39417 0.986983 0.552137 0.376225 0.237625
internal_count=105 69 65 63 58 49
is_linear=0
shrinkage=0.1


Tree=120
num_leaves=4
num_cat=0
split_feature=2 0 2
split_gain=0.321069 1.19363e-06 1.06916e-07
threshold=2.4499999880790715 6.0499999523162851 5.1499998569488534
decision_type=2 2 2
left_child=-1 -2 -3
right_child=1 2 -4
leaf_value=0.067035766656704479 -0.067302441628663182 -0.067063323128819699 -0.06693503841178175
leaf_weight=0.2734868386760354 0.25233190134167671 0.12598324567079544 0.13414047565311193
leaf_count=35 29 17 24
internal_value=-0.0204553 -0.0671475 -0.0669972
internal_weight=0.785942 0.512456 0.260124
internal_count=105 70 41
is_linear=0
shrinkage=0.1


Tree=121
num_leaves=5
num_cat=0
split_feature=0 3 2 1
split_gain=0.17827 0.208199 0.259219 0.103236
threshold=6.1499998569488534 1.5500000119209292 4.9500000476837167 2.9500000476837163
decision_type=2 2 2 2
left_child=1 2 3 -1
right_child=-2 -3 -4 -5
leaf_value=0.060661571658055725 -0.020631856487824805 0.053807601181472112 -0.089975664082987128 -0.028876450401455169
leaf_weight=0.34402297064662013 1.7007298478856681 1.0450343005359171 0.28792110085487366 0.20580605370923877
leaf_count=21 38 8 1 37
internal_value=0.00283568 0.024034 -0.0131064 0.0271467
internal_weight=3.58351 1.88278 0.83775 0.549829
internal_count=105 67 59 58
is_linear=0
shrinkage=0.1


Tree=122
num_leaves=6
num_cat=0
split_feature=0 2 2 1 2
split_gain=0.262626 0.21558 0.00443835 3.59218e-06 1.64974e-07
threshold=6.1499998569488534 4.8500001430511483 4.7500000000000009 2.6499999761581425 3.5499999523162846
decision_type=2 2 2 2 2
left_child=1 2 3 -1 -5
right_child=-2 -3 -4 4 -6
leaf_value=-0.067533018789253246 0.028490184897097284 -0.00034051857576175988 -0.084589819596245341 -0.066801581979019961 -0.066984855793517026
leaf_weight=0.15501391887664828 1.7943287473171947 1.1299151834100483 0.25048297643661499 0.10251418990083039 0.094290266744792461
leaf_count=10 38 8 1 34 14
internal_value=0.00167728 -0.0260971 -0.0744162 -0.067173 -0.0668894
internal_weight=3.52655 1.73222 0.602301 0.351818 0.196804
internal_count=105 67 59 58 48
is_linear=0
shrinkage=0.1


Tree=123
num_leaves=4
num_cat=0
split_feature=2 0 2
split_gain=0.29091 9.3403e-07 1.04037e-07
threshold=2.4499999880790715 6.0499999523162851 5.0499999523162851
decision_type=2 2 2
left_child=-1 -2 -3
right_child=1 2 -4
leaf_value=0.067002484699286255 -0.06725403943167875 -0.067041966913336748 -0.066910028154543458
leaf_weight=0.24656984955072403 0.23021744773723185 0.11281852191314101 0.12708830926567316
leaf_count=35 29 16 25
internal_value=-0.0209703 -0.0671102 -0.0669721
internal_weight=0.716694 0.470124 0.239907
internal_count=105 70 41
is_linear=0
shrinkage=0.1


Tree=124
num_leaves=5
num_cat=0
split_feature=1 3 2 3
split_gain=0.178178 0.360139 0.0951978 0.117988
threshold=2.7500000000000004 1.5500000119209292 4.4500000476837167 1.0500000119209292
decision_type=2 2 2 2
left_child=-1 2 3 -2
right_child=1 -3 -4 -5
leaf_value=0.027504756690658373 -0.066855655417030091 -0.049062407438180987 0.073177390134427339 0.067336006231746223
leaf_weight=1.5937620969489219 0.14081815443932999 1.260011365637183 0.39564973302185535 0.12253785878419876
leaf_count=25 34 29 8 9
internal_value=0.00279157 -0.017733 0.0421686 -0.00441714
internal_weight=3.51278 1.91902 0.659006 0.263356
internal_count=105 80 51 43
is_linear=0
shrinkage=0.1


Tree=125
num_leaves=7
num_cat=0
split_feature=3 1 2 0 1 3
split_gain=0.268423 0.411373 0.00311483 5.45058e-05 1.26722e-06 2.40381e-07
threshold=1.5500000119209292 2.2500000000000004 4.8500001430511483 6.4500000476837167 2.6499999761581425 1.0500000119209292
decision_type=2 2 2 2 2 2
left_child=1 -1 3 4 -3 -6
right_child=-2 2 -4 -5 5 -7
leaf_value=0.052493033985179377 0.022322738171906373 -0.067328167134375325 -0.079866394677198221 -0.069339436730509504 -0.06679027600705735 -0.067015414498215409
leaf_weight=0.36983962729573272 2.2186411544680595 0.11117555061355233 0.40531997382640839 0.16107693780213594 0.09473692299798131 0.094960777088999748
leaf_count=4 36 9 2 5 35 14
internal_value=0.00151143 -0.0358117 -0.0734685 -0.0678549 -0.0670601 -0.066903
internal_weight=3.45575 1.23711 0.86727 0.46195 0.300873 0.189698
internal_count=105 69 65 63 58 49
is_linear=0
shrinkage=0.1


Tree=126
num_leaves=4
num_cat=0
split_feature=2 0 2
split_gain=0.258583 7.77549e-07 7.16729e-08
threshold=2.4499999880790715 6.0499999523162851 5.1499998569488534
decision_type=2 2 2
left_child=-1 -2 -3
right_child=1 2 -4
leaf_value=0.066965085646157954 -0.067215800323145961 -0.067005096416007867 -0.066890286265333748
leaf_weight=0.21688670199364424 0.21008475823327899 0.105830158572644 0.11183286877349019
leaf_count=35 29 17 24
internal_value=-0.0219797 -0.0670786 -0.0669461
internal_weight=0.644634 0.427748 0.217663
internal_count=105 70 41
is_linear=0
shrinkage=0.1


Tree=127
num_leaves=5
num_cat=0
split_feature=1 3 2 3
split_gain=0.162591 0.30316 0.0818487 0.103176
threshold=2.7500000000000004 1.5500000119209292 4.4500000476837167 1.0500000119209292
decision_type=2 2 2 2
left_child=-1 2 3 -2
right_child=1 -3 -4 -5
leaf_value=0.026429093016703334 -0.06683201708770474 -0.045941733057873274 0.07230971860010757 0.067251673647358456
leaf_weight=1.5612749261781576 0.12329009477980424 1.2212353767827151 0.34996772557497025 0.10736519377678633
leaf_count=25 34 29 8 9
internal_value=0.00280817 -0.0176589 0.0418289 -0.00441887
internal_weight=3.36313 1.80186 0.580623 0.230655
internal_count=105 80 51 43
is_linear=0
shrinkage=0.1


Tree=128
num_leaves=5
num_cat=0
split_feature=0 1 1 2
split_gain=0.226976 0.280931 0.379112 0.427559
threshold=6.1499998569488534 2.6499999761581425 2.7500000000000004 4.8500001430511483
decision_type=2 2 2 2
left_child=1 -1 -3 -4
right_child=-2 2 3 -5
leaf_value=0.041948379545331878 0.027309472811701149 -0.11980909073497353 -0.077476670641453999 0.077675639904588242
leaf_weight=0.45346528477966819 1.6759682642295954 0.47475696215406038 0.37746627628803253 0.33546831086277962
leaf_count=12 38 7 45 3
internal_value=0.00142431 -0.0250099 -0.0505748 -0.00447042
internal_weight=3.31713 1.64116 1.18769 0.712935
internal_count=105 67 55 48
is_linear=0
shrinkage=0.1


Tree=129
num_leaves=4
num_cat=0
split_feature=2 0 2
split_gain=0.230003 7.16717e-07 5.52273e-08
threshold=2.4499999880790715 6.0499999523162851 5.1499998569488534
decision_type=2 2 2
left_child=-1 -2 -3
right_child=1 2 -4
leaf_value=0.066934422925032627 -0.067192370637693927 -0.066976473066503409 -0.066870428049609049
leaf_weight=0.19058171007782221 0.19412857876159251 0.094781182473525405 0.10191954369656742
leaf_count=35 29 17 24
internal_value=-0.0231351 -0.0670561 -0.0669215
internal_weight=0.581411 0.390829 0.196701
internal_count=105 70 41
is_linear=0
shrinkage=0.1


Tree=130
num_leaves=5
num_cat=0
split_feature=0 3 2 1
split_gain=0.147062 0.178907 0.220234 0.0716622
threshold=6.1499998569488534 1.5500000119209292 4.9500000476837167 2.9500000476837163
decision_type=2 2 2 2
left_child=1 2 3 -1
right_child=-2 -3 -4 -5
leaf_value=0.059749058235509273 -0.019695907270878266 0.048870248779241975 -0.087209530951937453 -0.027481693079678987
leaf_weight=0.2667927406728271 1.5491697937250135 1.040150625631213 0.2701052725315094 0.14556204178370535
leaf_count=21 38 8 1 37
internal_value=0.00266053 0.022766 -0.0170199 0.0289564
internal_weight=3.27178 1.72261 0.68246 0.412355
internal_count=105 67 59 58
is_linear=0
shrinkage=0.1


Tree=131
num_leaves=5
num_cat=0
split_feature=0 1 1 2
split_gain=0.201217 0.260954 0.276359 0.38968
threshold=6.1499998569488534 2.6499999761581425 2.7500000000000004 4.8500001430511483
decision_type=2 2 2 2
left_child=1 -1 -3 -4
right_child=-2 2 3 -5
leaf_value=0.040907658050564927 0.026320447083604523 -0.10491638487301747 -0.077597701183947085 0.076448294516171689
leaf_weight=0.45162643725052509 1.6227409690618513 0.49841374414972939 0.3547017810633406 0.30577365681529045
leaf_count=12 38 7 45 3
internal_value=0.00146797 -0.0235732 -0.0487018 -0.00628058
internal_weight=3.23326 1.61052 1.15889 0.660475
internal_count=105 67 55 48
is_linear=0
shrinkage=0.1


Tree=132
num_leaves=4
num_cat=0
split_feature=2 0 2
split_gain=0.208662 5.68875e-07 4.74551e-08
threshold=2.4499999880790715 6.0499999523162851 5.1499998569488534
decision_type=2 2 2
left_child=-1 -2 -3
right_child=1 2 -4
leaf_value=0.066914940337684775 -0.067154185364804345 -0.066954705197831657 -0.066852435558602236
leaf_weight=0.17207893589511514 0.17728010797873139 0.088644659845158458 0.092945773620158434
leaf_count=35 29 17 24
internal_value=-0.0236167 -0.0670268 -0.0669024
internal_weight=0.530949 0.358871 0.18159
internal_count=105 70 41
is_linear=0
shrinkage=0.1


Tree=133
num_leaves=6
num_cat=0
split_feature=3 0 2 1 1
split_gain=0.154389 0.283196 0.181944 0.0566461 0.0342661
threshold=1.5500000119209292 6.0499999523162851 4.9500000476837167 2.8500000238418584 3.0499999523162846
decision_type=2 2 2 2 2
left_child=1 2 3 -1 -5
right_child=-2 -3 -4 4 -6
leaf_value=0.060818224309424143 -0.015165046043230813 0.074735570194819648 -0.08475984374962986 0.028191265899287079 -0.066789854852433481
leaf_weight=0.20358623377978824 1.9479370214976368 0.66459369473159313 0.25184571743011475 0.075067231431603432 0.07688671606592834
leaf_count=15 36 13 1 12 28
internal_value=0.00252944 0.0296271 -0.0197299 0.0263338 -0.0198679
internal_weight=3.21992 1.27198 0.607386 0.35554 0.151954
internal_count=105 69 56 55 40
is_linear=0
shrinkage=0.1


Tree=134
num_leaves=8
num_cat=0
split_feature=3 1 2 2 2 1 2
split_gain=0.229454 0.338226 0.00228498 4.05872e-05 9.41736e-07 6.73467e-07 3.36416e-08
threshold=1.5500000119209292 2.2500000000000004 4.8500001430511483 4.6499998569488534 4.2500000000000009 2.6499999761581425 3.5499999523162846
decision_type=2 2 2 2 2 2 2
left_child=1 -1 3 4 5 -3 -7
right_child=-2 2 -4 -5 -6 6 -8
leaf_value=0.045839946593668607 0.020916980808471326 -0.067193564365570613 -0.07881101202776164 -0.069357365820558403 -0.067362346754030814 -0.066744080558454003 -0.066859946820282373
leaf_weight=0.34868768788874172 2.0799242602661252 0.07128292927518487 0.37804578244686127 0.11363522335886955 0.085826937574893236 0.058922600583173335 0.04360234597697854
leaf_count=4 36 7 2 4 7 34 11
internal_value=0.00138201 -0.0355554 -0.0733312 -0.0677812 -0.0670913 -0.0669575 -0.0667934
internal_weight=3.17993 1.1 0.751316 0.37327 0.259635 0.173808 0.102525
internal_count=105 69 65 63 59 52 45
is_linear=0
shrinkage=0.1


Tree=135
num_leaves=4
num_cat=0
split_feature=2 0 2
split_gain=0.187235 4.78337e-07 3.46278e-08
threshold=2.4499999880790715 6.0499999523162851 5.1499998569488534
decision_type=2 2 2
left_child=-1 -2 -3
right_child=1 2 -4
leaf_value=0.066894555891222021 -0.06712354361629766 -0.066928877661507 -0.066836924784487994
leaf_weight=0.15375381987541914 0.16153164370916784 0.078854887280613184 0.085206391289830208
leaf_count=35 29 17 24
internal_value=-0.0240533 -0.0670014 -0.0668811
internal_weight=0.479347 0.325593 0.164061
internal_count=105 70 41
is_linear=0
shrinkage=0.1


Tree=136
num_leaves=6
num_cat=0
split_feature=0 0 2 2 2
split_gain=0.146199 0.198782 0.35448 0.0750705 0.0891101
threshold=6.1499998569488534 5.9500000476837167 4.8500001430511483 3.8500000238418584 2.4499999880790715
decision_type=2 2 2 2 2
left_child=1 2 3 4 -1
right_child=-2 -3 -4 -5 -6
leaf_value=-0.066821305846356538 -0.020440044786896518 0.065724141726707652 -0.072920655450680869 0.078588775895478441 0.067612138292459531
leaf_weight=0.098366976948455198 1.4521420914679763 0.65558792790398002 0.43156748451292515 0.32903709309175611 0.098863900639116764
leaf_count=35 38 7 6 13 6
internal_value=0.00257895 0.0232969 -0.00574229 0.0493475 0.000564769
internal_weight=3.06557 1.61342 0.957835 0.526268 0.197231
internal_count=105 67 60 54 41
is_linear=0
shrinkage=0.1


Tree=137
num_leaves=6
num_cat=0
split_feature=0 2 2 1 2
split_gain=0.191267 0.161699 0.00234748 2.04749e-06 3.26237e-08
threshold=6.1499998569488534 4.8500001430511483 4.7500000000000009 2.6499999761581425 3.5499999523162846
decision_type=2 2 2 2 2
left_child=1 2 3 -1 -5
right_child=-2 -3 -4 4 -6
leaf_value=-0.067398284921755341 0.026340438145683376 -0.0027967643419645341 -0.081604117895586803 -0.066734409191202923 -0.066846557979112278
leaf_weight=0.11925418907776508 1.5144853750243781 1.0712101403623817 0.2243119478225708 0.051576189231127501 0.052181023289449513
leaf_count=10 38 8 1 34 14
internal_value=0.00119483 -0.0238837 -0.0743809 -0.0671157 -0.0667908
internal_weight=3.03302 1.51853 0.447323 0.223011 0.103757
internal_count=105 67 59 58 48
is_linear=0
shrinkage=0.1


Tree=138
num_leaves=4
num_cat=0
split_feature=2 0 2
split_gain=0.165839 3.62233e-07 2.92591e-08
threshold=2.4499999880790715 6.0499999523162851 5.1499998569488534
decision_type=2 2 2
left_child=-1 -2 -3
right_child=1 2 -4
leaf_value=0.066866079537861431 -0.067085784029578613 -0.066909932468004113 -0.066821885685874036
leaf_weight=0.1346263496670872 0.145339734852314 0.073397648986428976 0.077696030726656318
leaf_count=35 29 17 24
internal_value=-0.0251731 -0.0669731 -0.0668647
internal_weight=0.43106 0.296433 0.151094
internal_count=105 70 41
is_linear=0
shrinkage=0.1


Tree=139
num_leaves=6
num_cat=0
split_feature=3 0 2 1 0
split_gain=0.122044 0.274421 0.157939 0.043616 0.0253252
threshold=1.5500000119209292 6.0499999523162851 4.9500000476837167 2.8500000238418584 5.1499998569488534
decision_type=2 2 2 2 2
left_child=1 2 3 -1 -5
right_child=-2 -3 -4 4 -6
leaf_value=0.060055322494454166 -0.013326630078169359 0.074001735401449317 -0.083698415123777375 -0.066775321844528113 0.025350375177970164
leaf_weight=0.16233531944453738 1.8455439507961271 0.60940988641232252 0.24312226474285126 0.058223136933520436 0.061209259554743767
leaf_count=15 36 13 1 25 15
internal_value=0.00253922 0.0283535 -0.0246452 0.0263086 -0.0195608
internal_weight=2.97984 1.1343 0.52489 0.281768 0.119432
internal_count=105 69 56 55 40
is_linear=0
shrinkage=0.1


Tree=140
num_leaves=8
num_cat=0
split_feature=3 1 2 2 2 1 2
split_gain=0.177404 0.312957 0.00161134 3.01482e-05 8.22364e-07 3.04353e-07 1.6149e-08
threshold=1.5500000119209292 2.2500000000000004 4.8500001430511483 4.6499998569488534 4.2500000000000009 2.6499999761581425 3.5499999523162846
decision_type=2 2 2 2 2 2 2
left_child=1 -1 3 4 5 -3 -7
right_child=-2 2 -4 -5 -6 6 -8
leaf_value=0.045827700482424072 0.018598440684956637 -0.067071691910191009 -0.077602357503922623 -0.069127769876248454 -0.067303436022529972 -0.066725949249357541 -0.06681732024699566
leaf_weight=0.33327394351363215 1.9574109287932513 0.054868630599230528 0.35075031220912933 0.10322780814021826 0.075545174535363913 0.04514602106064558 0.033843946410343051
leaf_count=4 36 7 2 4 7 34 11
internal_value=0.00111191 -0.0332313 -0.0729494 -0.0677291 -0.0670396 -0.0668908 -0.0667651
internal_weight=2.95407 0.996656 0.663382 0.312632 0.209404 0.133859 0.07899
internal_count=105 69 65 63 59 52 45
is_linear=0
shrinkage=0.1


Tree=141
num_leaves=4
num_cat=0
split_feature=2 0 2
split_gain=0.149064 3.04421e-07 2.15273e-08
threshold=2.4499999880790715 6.0499999523162851 5.1499998569488534
decision_type=2 2 2
left_child=-1 -2 -3
right_child=1 2 -4
leaf_value=0.066849827879273502 -0.067059832716849496 -0.066888677720029086 -0.066809244797615797
leaf_weight=0.12050422979518771 0.13267280370928347 0.065356310456991196 0.071383091155439615
leaf_count=35 29 17 24
internal_value=-0.0256003 -0.0669519 -0.0668472
internal_weight=0.389916 0.269412 0.136739
internal_count=105 70 41
is_linear=0
shrinkage=0.1


Tree=142
num_leaves=6
num_cat=0
split_feature=0 0 2 2 1
split_gain=0.147361 0.196144 0.317142 0.0508634 0.0432863
threshold=6.1499998569488534 5.9500000476837167 4.8500001430511483 4.0499999523162851 2.6499999761581425
decision_type=2 2 2 2 2
left_child=1 2 3 4 -1
right_child=-2 -3 -4 -5 -6
leaf_value=0.055304190973434579 -0.021159878079039442 0.066225037774776119 -0.072361337979525611 0.07856448139926564 -0.042422813075716326
leaf_weight=0.097527835983783229 1.3629425726830957 0.63822909444570541 0.39639744535088539 0.26425568107515574 0.084672192926518619
leaf_count=8 38 7 6 9 37
internal_value=0.00256889 0.0244049 -0.00726232 0.0505375 0.00988839
internal_weight=2.84402 1.48108 0.842853 0.446456 0.1822
internal_count=105 67 60 54 45
is_linear=0
shrinkage=0.1


Tree=143
num_leaves=6
num_cat=0
split_feature=0 0 2 2 0
split_gain=0.184186 0.163976 0.417706 0.00140104 2.52188e-07
threshold=6.1499998569488534 5.9500000476837167 4.8500001430511483 4.7500000000000009 5.1499998569488534
decision_type=2 2 2 2 2
left_child=1 2 3 4 -1
right_child=-2 -3 -4 -5 -6
leaf_value=-0.067156230250221494 0.026414376681405605 -0.06250433286547398 0.072812923806136687 -0.079847168581630004 -0.066891260041496786
leaf_weight=0.066696784691885336 1.4158870968967674 0.63151899329386652 0.42495234869420528 0.20673450827598572 0.077840555459260941
leaf_count=28 38 7 6 1 25
internal_value=0.000947717 -0.0246663 0.00611795 -0.0745665 -0.0670135
internal_weight=2.82363 1.40774 0.776224 0.351272 0.144537
internal_count=105 67 60 54 53
is_linear=0
shrinkage=0.1


Tree=144
num_leaves=4
num_cat=0
split_feature=2 0 2
split_gain=0.134138 2.28432e-07 1.82145e-08
threshold=2.4499999880790715 6.0499999523162851 5.1499998569488534
decision_type=2 2 2
left_child=-1 -2 -3
right_child=1 2 -4
leaf_value=0.066835819014568698 -0.067026482664648543 -0.066872734222461233 -0.066796639505899549
leaf_weight=0.10796123812906444 0.11935331439599395 0.060883651254698634 0.065081672975793481
leaf_count=35 29 17 24
internal_value=-0.0260497 -0.0669273 -0.0668334
internal_weight=0.35328 0.245319 0.125965
internal_count=105 70 41
is_linear=0
shrinkage=0.1


Tree=145
num_leaves=5
num_cat=0
split_feature=0 1 0 2
split_gain=0.113513 0.215214 0.580651 0.223632
threshold=6.1499998569488534 2.6499999761581425 5.9500000476837167 4.8500001430511483
decision_type=2 2 2 2
left_child=1 -1 3 -3
right_child=-2 2 -4 -5
leaf_value=-0.04127969279139914 -0.018280387289449276 0.047527118854980593 0.14135172040031749 -0.071978318926927284
leaf_weight=0.3865523170679811 1.3543383846990762 0.30659554922021903 0.39458440942689776 0.32004622090607882
leaf_count=12 38 45 5 5
internal_value=0.00238795 0.0222717 0.0463271 -0.0135082
internal_weight=2.76212 1.40778 1.02123 0.626642
internal_count=105 67 55 50
is_linear=0
shrinkage=0.1


Tree=146
num_leaves=5
num_cat=0
split_feature=0 1 0 2
split_gain=0.143351 0.274801 0.51972 0.323024
threshold=6.1499998569488534 2.5499999523162846 5.9500000476837167 4.8500001430511483
decision_type=2 2 2 2
left_child=1 -1 3 -3
right_child=-2 2 -4 -5
leaf_value=0.054291152553222533 0.023303849684570391 -0.074609883449108891 -0.14005765022311709 0.072399089210159806
leaf_weight=0.34609502973035 1.4018307998776434 0.26471815805416554 0.38523997087031603 0.34331215359270573
leaf_count=9 38 48 5 5
internal_value=0.000951061 -0.0224442 -0.0491819 0.00839579
internal_weight=2.7412 1.33937 0.99327 0.60803
internal_count=105 67 58 53
is_linear=0
shrinkage=0.1


Tree=147
num_leaves=4
num_cat=0
split_feature=2 0 2
split_gain=0.124868 1.70095e-07 1.52869e-08
threshold=2.4499999880790715 6.0499999523162851 5.1499998569488534
decision_type=2 2 2
left_child=-1 -2 -3
right_child=1 2 -4
leaf_value=0.066824004663944198 -0.066994981205318924 -0.066858216999894193 -0.066785504806125412
leaf_weight=0.10133165027946234 0.10880269901826978 0.056233111419714987 0.059515342582017183
leaf_count=35 29 17 24
internal_value=-0.0253228 -0.0669052 -0.0668208
internal_weight=0.325883 0.224551 0.115748
internal_count=105 70 41
is_linear=0
shrinkage=0.1


Tree=148
num_leaves=6
num_cat=0
split_feature=3 0 2 1 1
split_gain=0.114974 0.264023 0.13396 0.0368916 0.0185237
threshold=1.5500000119209292 6.0499999523162851 4.9500000476837167 2.8500000238418584 3.0499999523162846
decision_type=2 2 2 2 2
left_child=1 2 3 -1 -5
right_child=-2 -3 -4 4 -6
leaf_value=0.059535243293565923 -0.014109743952230717 0.073651190364899519 -0.082161264555887792 0.023737717195060935 -0.066741709030608609
leaf_weight=0.13481014850549422 1.6520400959998367 0.57291437312960625 0.22953349351882935 0.043825335334986448 0.046779365628026426
leaf_count=15 36 13 1 12 28
internal_value=0.00222819 0.0284875 -0.028387 0.0263698 -0.022977
internal_weight=2.6799 1.02786 0.454948 0.225415 0.0906047
internal_count=105 69 56 55 40
is_linear=0
shrinkage=0.1


Tree=149
num_leaves=8
num_cat=0
split_feature=3 1 2 2 0 1 2
split_gain=0.158235 0.277733 0.00124403 2.44681e-05 9.90074e-07 1.63805e-07 6.40624e-09
threshold=1.5500000119209292 2.2500000000000004 4.8500001430511483 4.6499998569488534 6.1499998569488534 2.6499999761581425 3.5499999523162846
decision_type=2 2 2 2 2 2 2
left_child=1 -1 3 4 5 -3 -7
right_child=-2 2 -4 -5 -6 6 -8
leaf_value=0.04255927051108218 0.018627868719113056 -0.06698521794307491 -0.076954988106333277 -0.06902967262193882 -0.067364384466649968 -0.066706061719048484 -0.066772268560528827
leaf_weight=0.3194990269839767 1.7344546709209678 0.049682264216244221 0.33536696434020996 0.096955946879461408 0.057786221615970135 0.030019470897968858 0.02848083944991231
leaf_count=4 36 8 2 4 4 34 13
internal_value=0.000859996 -0.032718 -0.0729175 -0.0677675 -0.0670302 -0.0668517 -0.0667383
internal_weight=2.65225 0.917791 0.598292 0.262925 0.165969 0.108183 0.0585003
internal_count=105 69 65 63 59 55 47
is_linear=0
shrinkage=0.1


end of trees

feature_importances:
Column_2=259
Column_3=92
Column_1=73
Column_0=72

parameters:
[boosting: gbdt]
[objective: multiclass]
[metric: multi_logloss]
[tree_learner: serial]
[device_type: cpu]
[data_sample_strategy: bagging]
[data: ]
[valid: ]
[num_iterations: 50]
[learning_rate: 0.1]
[num_leaves: 31]
[num_threads: 0]
[seed: 0]
[deterministic: 0]
[force_col_wise: 0]
[force_row_wise: 0]
[histogram_pool_size: -1]
[max_depth: -1]
[min_data_in_leaf: 20]
[min_sum_hessian_in_leaf: 0.001]
[bagging_fraction: 1]
[pos_bagging_fraction: 1]
[neg_bagging_fraction: 1]
[bagging_freq: 0]
[bagging_seed: 3]
[bagging_by_query: 0]
[feature_fraction: 1]
[feature_fraction_bynode: 1]
[feature_fraction_seed: 2]
[extra_trees: 0]
[extra_seed: 6]
[early_stopping_round: 0]
[early_stopping_min_delta: 0]
[first_metric_only: 0]
[max_delta_step: 0]
[lambda_l1: 0]
[lambda_l2: 0]
[linear_lambda: 0]
[min_gain_to_split: 0]
[drop_rate: 0.1]
[max_drop: 50]
[skip_drop: 0.5]
[xgboost_dart_mode: 0]
[uniform_drop: 0]
[drop_seed: 4]
[top_rate: 0.2]
[other_rate: 0.1]
[min_data_per_group: 100]
[max_cat_threshold: 32]
[cat_l2: 10]
[cat_smooth: 10]
[max_cat_to_onehot: 4]
[top_k: 20]
[monotone_constraints: ]
[monotone_constraints_method: basic]
[monotone_penalty: 0]
[feature_contri: ]
[forcedsplits_filename: ]
[refit_decay_rate: 0.9]
[cegb_tradeoff: 1]
[cegb_penalty_split: 0]
[cegb_penalty_feature_lazy: ]
[cegb_penalty_feature_coupled: ]
[path_smooth: 0]
[interaction_constraints: ]
[verbosity: -1]
[saved_feature_importance_type: 0]
[use_quantized_grad: 0]
[num_grad_quant_bins: 4]
[quant_train_renew_leaf: 0]
[stochastic_rounding: 1]
[linear_tree: 0]
[max_bin: 255]
[max_bin_by_feature: ]
[min_data_in_bin: 3]
[bin_construct_sample_cnt: 200000]
[data_random_seed: 1]
[is_enable_sparse: 1]
[enable_bundle: 1]
[use_missing: 1]
[zero_as_missing: 0]
[feature_pre_filter: 1]
[pre_partition: 0]
[two_round: 0]
[header: 0]
[label_column: ]
[weight_column: ]
[group_column: ]
[ignore_column: ]
[categorical_feature: ]
[forcedbins_filename: ]
[precise_float_parser: 0]
[parser_config_file: ]
[objective_seed: 5]
[num_class: 3]
[is_unbalance: 0]
[scale_pos_weight: 1]
[sigmoid: 1]
[boost_from_average: 1]
[reg_sqrt: 0]
[alpha: 0.9]
[fair_c: 1]
[poisson_max_delta_step: 0.7]
[tweedie_variance_power: 1.5]
[lambdarank_truncation_level: 30]
[lambdarank_norm: 1]
[label_gain: ]
[lambdarank_position_bias_regularization: 0]
[eval_at: ]
[multi_error_top_k: 1]
[auc_mu_weights: ]
[num_machines: 1]
[local_listen_port: 12400]
[time_out: 120]
[machine_list_filename: ]
[machines: ]
[gpu_platform_id: -1]
[gpu_device_id: -1]
[gpu_use_dp: 0]
[num_gpu: 1]

end of parameters

pandas_categorical:null
